<?xml version="1.0"?>
<opencv_storage>
<cascade>
  <stageType>BOOST</stageType>
  <featureType>HAAR</featureType>
  <height>30</height>
  <width>30</width>
  <stageParams>
    <boostType>GAB</boostType>
    <minHitRate>9.9500000476837158e-01</minHitRate>
    <maxFalseAlarm>5.0000000000000000e-01</maxFalseAlarm>
    <weightTrimRate>9.4999999999999996e-01</weightTrimRate>
    <maxDepth>1</maxDepth>
    <maxWeakCount>100</maxWeakCount></stageParams>
  <featureParams>
    <maxCatCount>0</maxCatCount>
    <featSize>1</featSize>
    <mode>BASIC</mode></featureParams>
  <stageNum>10</stageNum>
  <stages>
    <!-- stage 0 -->
    <_>
      <maxWeakCount>15</maxWeakCount>
      <stageThreshold>-9.9340134859085083e-01</stageThreshold>
      <weakClassifiers>
        <_>
          <internalNodes>
            0 -1 177 -8.6516849696636200e-03</internalNodes>
          <leafValues>
            7.4767595529556274e-01 -8.4337346255779266e-02</leafValues></_>
        <_>
          <internalNodes>
            0 -1 63 -1.8301178934052587e-03</internalNodes>
          <leafValues>
            6.4767462015151978e-01 -1.7925514280796051e-01</leafValues></_>
        <_>
          <internalNodes>
            0 -1 107 4.3991133570671082e-03</internalNodes>
          <leafValues>
            -2.1146744489669800e-01 6.9515663385391235e-01</leafValues></_>
        <_>
          <internalNodes>
            0 -1 255 1.7523241695016623e-03</internalNodes>
          <leafValues>
            -2.5245022773742676e-01 4.7234857082366943e-01</leafValues></_>
        <_>
          <internalNodes>
            0 -1 248 -9.8751867190003395e-03</internalNodes>
          <leafValues>
            7.2636884450912476e-01 -1.4246605336666107e-01</leafValues></_>
        <_>
          <internalNodes>
            0 -1 225 4.0889033116400242e-03</internalNodes>
          <leafValues>
            -1.8045759201049805e-01 5.2724957466125488e-01</leafValues></_>
        <_>
          <internalNodes>
            0 -1 217 2.4579665623605251e-03</internalNodes>
          <leafValues>
            -1.7529189586639404e-01 4.3409377336502075e-01</leafValues></_>
        <_>
          <internalNodes>
            0 -1 229 1.3060877099633217e-02</internalNodes>
          <leafValues>
            -1.7225338518619537e-01 4.8347362875938416e-01</leafValues></_>
        <_>
          <internalNodes>
            0 -1 126 4.6126246452331543e-03</internalNodes>
          <leafValues>
            -1.7714944481849670e-01 4.8600345849990845e-01</leafValues></_>
        <_>
          <internalNodes>
            0 -1 242 4.7922644764184952e-02</internalNodes>
          <leafValues>
            1.2815649807453156e-01 -6.6533631086349487e-01</leafValues></_>
        <_>
          <internalNodes>
            0 -1 19 -1.3628761516883969e-03</internalNodes>
          <leafValues>
            3.0852174758911133e-01 -2.6000332832336426e-01</leafValues></_>
        <_>
          <internalNodes>
            0 -1 53 -4.3227197602391243e-03</internalNodes>
          <leafValues>
            -5.3265303373336792e-01 1.4902296662330627e-01</leafValues></_>
        <_>
          <internalNodes>
            0 -1 182 -3.4986492246389389e-03</internalNodes>
          <leafValues>
            3.9188486337661743e-01 -1.7610217630863190e-01</leafValues></_>
        <_>
          <internalNodes>
            0 -1 257 -1.2924778275191784e-03</internalNodes>
          <leafValues>
            4.2070871591567993e-01 -1.6732813417911530e-01</leafValues></_>
        <_>
          <internalNodes>
            0 -1 179 -5.3827755618840456e-04</internalNodes>
          <leafValues>
            3.3999428153038025e-01 -2.2113068401813507e-01</leafValues></_></weakClassifiers></_>
    <!-- stage 1 -->
    <_>
      <maxWeakCount>25</maxWeakCount>
      <stageThreshold>-9.7234576940536499e-01</stageThreshold>
      <weakClassifiers>
        <_>
          <internalNodes>
            0 -1 189 -6.7777018994092941e-03</internalNodes>
          <leafValues>
            6.6710698604583740e-01 -6.7294752225279808e-03</leafValues></_>
        <_>
          <internalNodes>
            0 -1 125 8.0447737127542496e-03</internalNodes>
          <leafValues>
            -1.2820219993591309e-01 7.3695969581604004e-01</leafValues></_>
        <_>
          <internalNodes>
            0 -1 113 -2.4952257517725229e-03</internalNodes>
          <leafValues>
            4.6229788661003113e-01 -3.2310792803764343e-01</leafValues></_>
        <_>
          <internalNodes>
            0 -1 266 -4.8884078860282898e-03</internalNodes>
          <leafValues>
            5.5022919178009033e-01 -1.3778111338615417e-01</leafValues></_>
        <_>
          <internalNodes>
            0 -1 255 3.8547939620912075e-03</internalNodes>
          <leafValues>
            -2.3114091157913208e-01 4.8327279090881348e-01</leafValues></_>
        <_>
          <internalNodes>
            0 -1 72 1.6357788816094398e-02</internalNodes>
          <leafValues>
            -7.1364454925060272e-02 8.2150810956954956e-01</leafValues></_>
        <_>
          <internalNodes>
            0 -1 4 1.0196834802627563e-02</internalNodes>
          <leafValues>
            -1.6335171461105347e-01 3.8958415389060974e-01</leafValues></_>
        <_>
          <internalNodes>
            0 -1 249 9.7393728792667389e-03</internalNodes>
          <leafValues>
            -1.4027218520641327e-01 5.1438921689987183e-01</leafValues></_>
        <_>
          <internalNodes>
            0 -1 57 1.6225503385066986e-01</internalNodes>
          <leafValues>
            -6.5277293324470520e-02 6.8612086772918701e-01</leafValues></_>
        <_>
          <internalNodes>
            0 -1 193 2.8224503621459007e-03</internalNodes>
          <leafValues>
            -2.4664469063282013e-01 2.3360757529735565e-01</leafValues></_>
        <_>
          <internalNodes>
            0 -1 155 -5.2290004678070545e-03</internalNodes>
          <leafValues>
            2.9628628492355347e-01 -1.8881812691688538e-01</leafValues></_>
        <_>
          <internalNodes>
            0 -1 281 -3.8494719192385674e-03</internalNodes>
          <leafValues>
            -3.6590558290481567e-01 1.6552238166332245e-01</leafValues></_>
        <_>
          <internalNodes>
            0 -1 251 2.5180849479511380e-04</internalNodes>
          <leafValues>
            1.5102902054786682e-01 -3.9701625704765320e-01</leafValues></_>
        <_>
          <internalNodes>
            0 -1 25 5.2991076372563839e-03</internalNodes>
          <leafValues>
            -1.0689530521631241e-01 5.0212061405181885e-01</leafValues></_>
        <_>
          <internalNodes>
            0 -1 129 4.7568436712026596e-03</internalNodes>
          <leafValues>
            -8.7283678352832794e-02 6.3687038421630859e-01</leafValues></_>
        <_>
          <internalNodes>
            0 -1 198 -1.6569799045100808e-03</internalNodes>
          <leafValues>
            4.2221972346305847e-01 -1.2056961655616760e-01</leafValues></_>
        <_>
          <internalNodes>
            0 -1 268 1.8568232655525208e-02</internalNodes>
          <leafValues>
            -8.0738916993141174e-02 7.5330024957656860e-01</leafValues></_>
        <_>
          <internalNodes>
            0 -1 310 2.3942688130773604e-04</internalNodes>
          <leafValues>
            1.4324903488159180e-01 -4.3835279345512390e-01</leafValues></_>
        <_>
          <internalNodes>
            0 -1 285 2.3432988673448563e-03</internalNodes>
          <leafValues>
            2.0199316740036011e-01 -2.6390457153320312e-01</leafValues></_>
        <_>
          <internalNodes>
            0 -1 70 6.7187345121055841e-04</internalNodes>
          <leafValues>
            -1.5569809079170227e-01 3.1201636791229248e-01</leafValues></_>
        <_>
          <internalNodes>
            0 -1 205 -4.0541100315749645e-04</internalNodes>
          <leafValues>
            -4.0575462579727173e-01 1.2763592600822449e-01</leafValues></_>
        <_>
          <internalNodes>
            0 -1 60 5.1792860031127930e-03</internalNodes>
          <leafValues>
            -1.9486363232135773e-01 2.5115913152694702e-01</leafValues></_>
        <_>
          <internalNodes>
            0 -1 195 6.6446559503674507e-03</internalNodes>
          <leafValues>
            1.8033778667449951e-01 -2.7828443050384521e-01</leafValues></_>
        <_>
          <internalNodes>
            0 -1 120 -1.5906983753666282e-03</internalNodes>
          <leafValues>
            3.3172479271888733e-01 -1.6420300304889679e-01</leafValues></_>
        <_>
          <internalNodes>
            0 -1 52 -1.0054262727499008e-01</internalNodes>
          <leafValues>
            6.2593346834182739e-01 -7.4832759797573090e-02</leafValues></_></weakClassifiers></_>
    <!-- stage 2 -->
    <_>
      <maxWeakCount>30</maxWeakCount>
      <stageThreshold>-7.5490611791610718e-01</stageThreshold>
      <weakClassifiers>
        <_>
          <internalNodes>
            0 -1 178 -1.0875698179006577e-02</internalNodes>
          <leafValues>
            7.3770493268966675e-01 9.9894843995571136e-02</leafValues></_>
        <_>
          <internalNodes>
            0 -1 183 4.2963800951838493e-03</internalNodes>
          <leafValues>
            -2.1016186475753784e-01 4.6744027733802795e-01</leafValues></_>
        <_>
          <internalNodes>
            0 -1 54 -2.1072209347039461e-03</internalNodes>
          <leafValues>
            4.6870690584182739e-01 -1.9602595269680023e-01</leafValues></_>
        <_>
          <internalNodes>
            0 -1 108 7.4343485757708549e-03</internalNodes>
          <leafValues>
            -1.7970284819602966e-01 6.1160910129547119e-01</leafValues></_>
        <_>
          <internalNodes>
            0 -1 124 1.5128895174711943e-03</internalNodes>
          <leafValues>
            -2.4634310603141785e-01 3.3264252543449402e-01</leafValues></_>
        <_>
          <internalNodes>
            0 -1 296 -4.3220347724854946e-03</internalNodes>
          <leafValues>
            2.7594533562660217e-01 -2.5275591015815735e-01</leafValues></_>
        <_>
          <internalNodes>
            0 -1 267 -5.8771353214979172e-03</internalNodes>
          <leafValues>
            4.6604815125465393e-01 -1.2797974050045013e-01</leafValues></_>
        <_>
          <internalNodes>
            0 -1 307 7.1217697113752365e-03</internalNodes>
          <leafValues>
            1.0904766619205475e-01 -4.3596571683883667e-01</leafValues></_>
        <_>
          <internalNodes>
            0 -1 87 -2.1524813491851091e-03</internalNodes>
          <leafValues>
            4.4901859760284424e-01 -1.0740508884191513e-01</leafValues></_>
        <_>
          <internalNodes>
            0 -1 121 8.1918006762862206e-03</internalNodes>
          <leafValues>
            -7.4650749564170837e-02 6.9592207670211792e-01</leafValues></_>
        <_>
          <internalNodes>
            0 -1 105 -7.4358633719384670e-04</internalNodes>
          <leafValues>
            2.9894104599952698e-01 -1.6337312757968903e-01</leafValues></_>
        <_>
          <internalNodes>
            0 -1 73 3.9604781195521355e-03</internalNodes>
          <leafValues>
            9.3045890331268311e-02 -5.2469831705093384e-01</leafValues></_>
        <_>
          <internalNodes>
            0 -1 151 2.1403433755040169e-02</internalNodes>
          <leafValues>
            -5.2084986120462418e-02 8.6487460136413574e-01</leafValues></_>
        <_>
          <internalNodes>
            0 -1 28 -2.3332266137003899e-03</internalNodes>
          <leafValues>
            -2.8636682033538818e-01 1.6177755594253540e-01</leafValues></_>
        <_>
          <internalNodes>
            0 -1 275 6.3834467437118292e-04</internalNodes>
          <leafValues>
            7.8367792069911957e-02 -5.6788033246994019e-01</leafValues></_>
        <_>
          <internalNodes>
            0 -1 259 -3.3820003736764193e-03</internalNodes>
          <leafValues>
            -6.9071865081787109e-01 5.9115450829267502e-02</leafValues></_>
        <_>
          <internalNodes>
            0 -1 209 -6.9783208891749382e-04</internalNodes>
          <leafValues>
            2.0765157043933868e-01 -2.2682863473892212e-01</leafValues></_>
        <_>
          <internalNodes>
            0 -1 282 3.1131575815379620e-04</internalNodes>
          <leafValues>
            -1.1579196155071259e-01 4.2174535989761353e-01</leafValues></_>
        <_>
          <internalNodes>
            0 -1 238 1.2713680043816566e-02</internalNodes>
          <leafValues>
            -6.5966561436653137e-02 6.2664312124252319e-01</leafValues></_>
        <_>
          <internalNodes>
            0 -1 302 6.5098959021270275e-04</internalNodes>
          <leafValues>
            8.2631856203079224e-02 -7.3697215318679810e-01</leafValues></_>
        <_>
          <internalNodes>
            0 -1 176 -4.1875801980495453e-03</internalNodes>
          <leafValues>
            2.3684670031070709e-01 -2.0500233769416809e-01</leafValues></_>
        <_>
          <internalNodes>
            0 -1 174 4.8372875899076462e-03</internalNodes>
          <leafValues>
            -6.1311211436986923e-02 7.2309648990631104e-01</leafValues></_>
        <_>
          <internalNodes>
            0 -1 318 -5.5957473814487457e-03</internalNodes>
          <leafValues>
            -3.6377707123756409e-01 1.3009357452392578e-01</leafValues></_>
        <_>
          <internalNodes>
            0 -1 123 -2.4711657315492630e-03</internalNodes>
          <leafValues>
            3.0743014812469482e-01 -1.4536547660827637e-01</leafValues></_>
        <_>
          <internalNodes>
            0 -1 264 1.0480427881702781e-03</internalNodes>
          <leafValues>
            -1.3025708496570587e-01 3.6521124839782715e-01</leafValues></_>
        <_>
          <internalNodes>
            0 -1 160 -6.3234090339392424e-04</internalNodes>
          <leafValues>
            -4.3703535199165344e-01 1.1414525657892227e-01</leafValues></_>
        <_>
          <internalNodes>
            0 -1 272 -6.6427397541701794e-04</internalNodes>
          <leafValues>
            5.1607859134674072e-01 -8.5714772343635559e-02</leafValues></_>
        <_>
          <internalNodes>
            0 -1 43 -2.7357888757251203e-04</internalNodes>
          <leafValues>
            -2.0567242801189423e-01 2.3193788528442383e-01</leafValues></_>
        <_>
          <internalNodes>
            0 -1 322 4.7696911497041583e-04</internalNodes>
          <leafValues>
            1.2771487236022949e-01 -3.6504569649696350e-01</leafValues></_>
        <_>
          <internalNodes>
            0 -1 59 -2.0322320982813835e-02</internalNodes>
          <leafValues>
            -2.9545980691909790e-01 1.5232416987419128e-01</leafValues></_></weakClassifiers></_>
    <!-- stage 3 -->
    <_>
      <maxWeakCount>34</maxWeakCount>
      <stageThreshold>-8.3667623996734619e-01</stageThreshold>
      <weakClassifiers>
        <_>
          <internalNodes>
            0 -1 119 1.3699585571885109e-02</internalNodes>
          <leafValues>
            1.4143426716327667e-01 7.2177422046661377e-01</leafValues></_>
        <_>
          <internalNodes>
            0 -1 157 -1.9448606763035059e-03</internalNodes>
          <leafValues>
            3.0146428942680359e-01 -2.5466701388359070e-01</leafValues></_>
        <_>
          <internalNodes>
            0 -1 48 -3.7434371188282967e-03</internalNodes>
          <leafValues>
            4.2570355534553528e-01 -1.6901227831840515e-01</leafValues></_>
        <_>
          <internalNodes>
            0 -1 247 -9.7755063325166702e-03</internalNodes>
          <leafValues>
            5.8102124929428101e-01 -1.2563574314117432e-01</leafValues></_>
        <_>
          <internalNodes>
            0 -1 279 3.4797887783497572e-03</internalNodes>
          <leafValues>
            -1.0444520413875580e-01 6.8269658088684082e-01</leafValues></_>
        <_>
          <internalNodes>
            0 -1 291 7.0483458694070578e-04</internalNodes>
          <leafValues>
            1.5726268291473389e-01 -3.9034360647201538e-01</leafValues></_>
        <_>
          <internalNodes>
            0 -1 181 1.4003367163240910e-02</internalNodes>
          <leafValues>
            -7.8460261225700378e-02 6.9938206672668457e-01</leafValues></_>
        <_>
          <internalNodes>
            0 -1 321 -8.7563099805265665e-04</internalNodes>
          <leafValues>
            -7.1570384502410889e-01 9.6573479473590851e-02</leafValues></_>
        <_>
          <internalNodes>
            0 -1 34 6.7688431590795517e-04</internalNodes>
          <leafValues>
            -1.6784033179283142e-01 3.6416161060333252e-01</leafValues></_>
        <_>
          <internalNodes>
            0 -1 127 1.1568188667297363e-02</internalNodes>
          <leafValues>
            -5.5714868009090424e-02 8.4899902343750000e-01</leafValues></_>
        <_>
          <internalNodes>
            0 -1 24 1.4843367040157318e-02</internalNodes>
          <leafValues>
            -9.8307155072689056e-02 4.4468519091606140e-01</leafValues></_>
        <_>
          <internalNodes>
            0 -1 192 1.2261124327778816e-02</internalNodes>
          <leafValues>
            -8.7797664105892181e-02 5.2761089801788330e-01</leafValues></_>
        <_>
          <internalNodes>
            0 -1 303 1.0972932213917375e-03</internalNodes>
          <leafValues>
            9.5237582921981812e-02 -5.1012939214706421e-01</leafValues></_>
        <_>
          <internalNodes>
            0 -1 146 -2.6769146788865328e-03</internalNodes>
          <leafValues>
            3.2216519117355347e-01 -1.6044713556766510e-01</leafValues></_>
        <_>
          <internalNodes>
            0 -1 5 -5.5922656320035458e-03</internalNodes>
          <leafValues>
            -6.0644376277923584e-01 8.9819796383380890e-02</leafValues></_>
        <_>
          <internalNodes>
            0 -1 261 3.6929626367054880e-04</internalNodes>
          <leafValues>
            -2.2717532515525818e-01 2.0465222001075745e-01</leafValues></_>
        <_>
          <internalNodes>
            0 -1 252 -4.1166297160089016e-04</internalNodes>
          <leafValues>
            2.3568825423717499e-01 -2.0837685465812683e-01</leafValues></_>
        <_>
          <internalNodes>
            0 -1 317 4.2231869883835316e-03</internalNodes>
          <leafValues>
            6.8439178168773651e-02 -7.3984479904174805e-01</leafValues></_>
        <_>
          <internalNodes>
            0 -1 201 1.2400297448039055e-02</internalNodes>
          <leafValues>
            -6.6932208836078644e-02 7.9995346069335938e-01</leafValues></_>
        <_>
          <internalNodes>
            0 -1 159 3.4266337752342224e-03</internalNodes>
          <leafValues>
            8.5157915949821472e-02 -5.8033907413482666e-01</leafValues></_>
        <_>
          <internalNodes>
            0 -1 250 7.1252193301916122e-03</internalNodes>
          <leafValues>
            -6.6284291446208954e-02 7.2140848636627197e-01</leafValues></_>
        <_>
          <internalNodes>
            0 -1 102 9.3082431703805923e-04</internalNodes>
          <leafValues>
            -1.8875743448734283e-01 2.4417705833911896e-01</leafValues></_>
        <_>
          <internalNodes>
            0 -1 44 -1.4817113056778908e-02</internalNodes>
          <leafValues>
            -3.0804732441902161e-01 1.5358859300613403e-01</leafValues></_>
        <_>
          <internalNodes>
            0 -1 132 -8.9236791245639324e-04</internalNodes>
          <leafValues>
            2.8920933604240417e-01 -1.5655869245529175e-01</leafValues></_>
        <_>
          <internalNodes>
            0 -1 180 3.8999579846858978e-03</internalNodes>
          <leafValues>
            -6.0992691665887833e-02 6.9929146766662598e-01</leafValues></_>
        <_>
          <internalNodes>
            0 -1 39 -1.5897575765848160e-02</internalNodes>
          <leafValues>
            -5.9433698654174805e-01 8.8356763124465942e-02</leafValues></_>
        <_>
          <internalNodes>
            0 -1 304 4.1709616198204458e-04</internalNodes>
          <leafValues>
            1.1289215087890625e-01 -3.7281969189643860e-01</leafValues></_>
        <_>
          <internalNodes>
            0 -1 56 7.7105410397052765e-02</internalNodes>
          <leafValues>
            -5.3223647177219391e-02 8.5073328018188477e-01</leafValues></_>
        <_>
          <internalNodes>
            0 -1 198 -4.2442493140697479e-03</internalNodes>
          <leafValues>
            6.0699349641799927e-01 -5.8905642479658127e-02</leafValues></_>
        <_>
          <internalNodes>
            0 -1 284 2.2363757714629173e-02</internalNodes>
          <leafValues>
            -8.4795020520687103e-02 4.7079575061798096e-01</leafValues></_>
        <_>
          <internalNodes>
            0 -1 325 -4.9775757361203432e-04</internalNodes>
          <leafValues>
            -4.2184144258499146e-01 1.0765810310840607e-01</leafValues></_>
        <_>
          <internalNodes>
            0 -1 232 6.0083568096160889e-03</internalNodes>
          <leafValues>
            -5.6929241865873337e-02 7.5335180759429932e-01</leafValues></_>
        <_>
          <internalNodes>
            0 -1 75 2.1997494623064995e-03</internalNodes>
          <leafValues>
            -1.2719258666038513e-01 3.2149812579154968e-01</leafValues></_>
        <_>
          <internalNodes>
            0 -1 158 -3.4207052085548639e-03</internalNodes>
          <leafValues>
            -3.4027406573295593e-01 1.3268502056598663e-01</leafValues></_></weakClassifiers></_>
    <!-- stage 4 -->
    <_>
      <maxWeakCount>36</maxWeakCount>
      <stageThreshold>-6.5946346521377563e-01</stageThreshold>
      <weakClassifiers>
        <_>
          <internalNodes>
            0 -1 106 4.0789395570755005e-03</internalNodes>
          <leafValues>
            9.8554536700248718e-02 5.7510149478912354e-01</leafValues></_>
        <_>
          <internalNodes>
            0 -1 239 8.3316564559936523e-03</internalNodes>
          <leafValues>
            -8.3505041897296906e-02 6.0095602273941040e-01</leafValues></_>
        <_>
          <internalNodes>
            0 -1 233 -4.0919678285717964e-03</internalNodes>
          <leafValues>
            4.6232002973556519e-01 -1.5715101361274719e-01</leafValues></_>
        <_>
          <internalNodes>
            0 -1 139 -5.5849626660346985e-03</internalNodes>
          <leafValues>
            2.5162220001220703e-01 -2.3169767856597900e-01</leafValues></_>
        <_>
          <internalNodes>
            0 -1 14 -7.4574220925569534e-03</internalNodes>
          <leafValues>
            3.0430531501770020e-01 -2.0054885745048523e-01</leafValues></_>
        <_>
          <internalNodes>
            0 -1 128 1.6847714781761169e-02</internalNodes>
          <leafValues>
            -6.6688209772109985e-02 7.4399143457412720e-01</leafValues></_>
        <_>
          <internalNodes>
            0 -1 260 5.0250755157321692e-04</internalNodes>
          <leafValues>
            1.9725087285041809e-01 -2.7976661920547485e-01</leafValues></_>
        <_>
          <internalNodes>
            0 -1 91 -4.4034114107489586e-03</internalNodes>
          <leafValues>
            5.3623104095458984e-01 -8.3182707428932190e-02</leafValues></_>
        <_>
          <internalNodes>
            0 -1 29 -1.9769724458456039e-02</internalNodes>
          <leafValues>
            -5.8081340789794922e-01 7.5898326933383942e-02</leafValues></_>
        <_>
          <internalNodes>
            0 -1 246 3.4716245718300343e-03</internalNodes>
          <leafValues>
            1.4905923604965210e-01 -2.8715452551841736e-01</leafValues></_>
        <_>
          <internalNodes>
            0 -1 277 -7.2473514592275023e-05</internalNodes>
          <leafValues>
            -2.5397232174873352e-01 1.8162280321121216e-01</leafValues></_>
        <_>
          <internalNodes>
            0 -1 27 -7.0229812990874052e-04</internalNodes>
          <leafValues>
            3.3606404066085815e-01 -1.2743276357650757e-01</leafValues></_>
        <_>
          <internalNodes>
            0 -1 320 3.3760324004106224e-04</internalNodes>
          <leafValues>
            1.4018060266971588e-01 -3.0891388654708862e-01</leafValues></_>
        <_>
          <internalNodes>
            0 -1 112 3.1435932032763958e-03</internalNodes>
          <leafValues>
            -9.3339018523693085e-02 4.4096556305885315e-01</leafValues></_>
        <_>
          <internalNodes>
            0 -1 170 -3.0502760782837868e-03</internalNodes>
          <leafValues>
            5.7983231544494629e-01 -7.0061735808849335e-02</leafValues></_>
        <_>
          <internalNodes>
            0 -1 168 1.0280710645020008e-02</internalNodes>
          <leafValues>
            7.2821348905563354e-02 -6.8871337175369263e-01</leafValues></_>
        <_>
          <internalNodes>
            0 -1 215 4.5878008008003235e-02</internalNodes>
          <leafValues>
            -1.1502218991518021e-01 4.0305992960929871e-01</leafValues></_>
        <_>
          <internalNodes>
            0 -1 197 -1.5882702544331551e-02</internalNodes>
          <leafValues>
            4.3985259532928467e-01 -1.0364964604377747e-01</leafValues></_>
        <_>
          <internalNodes>
            0 -1 236 -2.4287551059387624e-04</internalNodes>
          <leafValues>
            -2.6067370176315308e-01 1.5340483188629150e-01</leafValues></_>
        <_>
          <internalNodes>
            0 -1 274 -3.5043959505856037e-03</internalNodes>
          <leafValues>
            3.9211177825927734e-01 -1.0931549221277237e-01</leafValues></_>
        <_>
          <internalNodes>
            0 -1 64 -3.4529925324022770e-04</internalNodes>
          <leafValues>
            2.3748846352100372e-01 -1.5437792241573334e-01</leafValues></_>
        <_>
          <internalNodes>
            0 -1 315 2.2770289797335863e-04</internalNodes>
          <leafValues>
            1.3942421972751617e-01 -2.7350080013275146e-01</leafValues></_>
        <_>
          <internalNodes>
            0 -1 90 -1.5205673407763243e-03</internalNodes>
          <leafValues>
            4.5826059579849243e-01 -7.6117120683193207e-02</leafValues></_>
        <_>
          <internalNodes>
            0 -1 175 -1.1237961734877899e-04</internalNodes>
          <leafValues>
            2.0440395176410675e-01 -1.8831579387187958e-01</leafValues></_>
        <_>
          <internalNodes>
            0 -1 18 2.4519333965145051e-04</internalNodes>
          <leafValues>
            1.0291105508804321e-01 -3.4731990098953247e-01</leafValues></_>
        <_>
          <internalNodes>
            0 -1 202 4.0816143155097961e-03</internalNodes>
          <leafValues>
            -6.8151481449604034e-02 5.5819517374038696e-01</leafValues></_>
        <_>
          <internalNodes>
            0 -1 243 -1.6565264668315649e-03</internalNodes>
          <leafValues>
            2.1940727531909943e-01 -1.6668269038200378e-01</leafValues></_>
        <_>
          <internalNodes>
            0 -1 220 8.4126135334372520e-05</internalNodes>
          <leafValues>
            1.6085821390151978e-01 -2.3175555467605591e-01</leafValues></_>
        <_>
          <internalNodes>
            0 -1 38 3.0180085450410843e-03</internalNodes>
          <leafValues>
            -1.0712646692991257e-01 3.6772596836090088e-01</leafValues></_>
        <_>
          <internalNodes>
            0 -1 8 7.2844741225708276e-06</internalNodes>
          <leafValues>
            -1.7805311083793640e-01 2.0872916281223297e-01</leafValues></_>
        <_>
          <internalNodes>
            0 -1 1 1.1760839261114597e-02</internalNodes>
          <leafValues>
            -9.9771246314048767e-02 3.6836841702461243e-01</leafValues></_>
        <_>
          <internalNodes>
            0 -1 312 4.8941401764750481e-03</internalNodes>
          <leafValues>
            9.2423222959041595e-02 -4.0564563870429993e-01</leafValues></_>
        <_>
          <internalNodes>
            0 -1 55 1.5370274195447564e-03</internalNodes>
          <leafValues>
            -1.7842324078083038e-01 2.2375504672527313e-01</leafValues></_>
        <_>
          <internalNodes>
            0 -1 166 -9.4776623882353306e-04</internalNodes>
          <leafValues>
            2.3219214379787445e-01 -1.8830019235610962e-01</leafValues></_>
        <_>
          <internalNodes>
            0 -1 231 -1.1604509782046080e-03</internalNodes>
          <leafValues>
            -3.3896791934967041e-01 1.1870074272155762e-01</leafValues></_>
        <_>
          <internalNodes>
            0 -1 83 -2.6711618993431330e-03</internalNodes>
          <leafValues>
            -4.3827167153358459e-01 8.9099593460559845e-02</leafValues></_></weakClassifiers></_>
    <!-- stage 5 -->
    <_>
      <maxWeakCount>40</maxWeakCount>
      <stageThreshold>-8.3841300010681152e-01</stageThreshold>
      <weakClassifiers>
        <_>
          <internalNodes>
            0 -1 147 6.4238058403134346e-03</internalNodes>
          <leafValues>
            1.6841103136539459e-01 7.1937638521194458e-01</leafValues></_>
        <_>
          <internalNodes>
            0 -1 219 -1.0274758562445641e-02</internalNodes>
          <leafValues>
            4.4785961508750916e-01 -1.2080714106559753e-01</leafValues></_>
        <_>
          <internalNodes>
            0 -1 136 5.9540802612900734e-03</internalNodes>
          <leafValues>
            -1.1608558148145676e-01 6.2437182664871216e-01</leafValues></_>
        <_>
          <internalNodes>
            0 -1 130 4.3790135532617569e-03</internalNodes>
          <leafValues>
            -9.2207513749599457e-02 5.1713114976882935e-01</leafValues></_>
        <_>
          <internalNodes>
            0 -1 79 -9.9422112107276917e-03</internalNodes>
          <leafValues>
            6.6891819238662720e-01 -7.8736864030361176e-02</leafValues></_>
        <_>
          <internalNodes>
            0 -1 253 4.3702553957700729e-03</internalNodes>
          <leafValues>
            -6.2775135040283203e-02 6.7930424213409424e-01</leafValues></_>
        <_>
          <internalNodes>
            0 -1 250 8.6227133870124817e-03</internalNodes>
          <leafValues>
            -5.9099275618791580e-02 7.8778982162475586e-01</leafValues></_>
        <_>
          <internalNodes>
            0 -1 121 -9.1693433932960033e-04</internalNodes>
          <leafValues>
            3.7607327103614807e-01 -1.2575671076774597e-01</leafValues></_>
        <_>
          <internalNodes>
            0 -1 293 -7.6919293496757746e-04</internalNodes>
          <leafValues>
            -3.8927617669105530e-01 1.3101081550121307e-01</leafValues></_>
        <_>
          <internalNodes>
            0 -1 208 -1.0290390346199274e-03</internalNodes>
          <leafValues>
            -4.3620765209197998e-01 1.0442157834768295e-01</leafValues></_>
        <_>
          <internalNodes>
            0 -1 254 1.0208964813500643e-03</internalNodes>
          <leafValues>
            -1.5298044681549072e-01 3.0771142244338989e-01</leafValues></_>
        <_>
          <internalNodes>
            0 -1 240 1.1294036812614650e-04</internalNodes>
          <leafValues>
            1.4601279795169830e-01 -2.5685322284698486e-01</leafValues></_>
        <_>
          <internalNodes>
            0 -1 40 6.0899048112332821e-03</internalNodes>
          <leafValues>
            6.8816602230072021e-02 -5.6960690021514893e-01</leafValues></_>
        <_>
          <internalNodes>
            0 -1 33 5.5507617071270943e-04</internalNodes>
          <leafValues>
            -1.6091196238994598e-01 2.3814570903778076e-01</leafValues></_>
        <_>
          <internalNodes>
            0 -1 3 -2.2722419817000628e-04</internalNodes>
          <leafValues>
            -3.9114817976951599e-01 1.1233858764171600e-01</leafValues></_>
        <_>
          <internalNodes>
            0 -1 133 4.1101514361798763e-03</internalNodes>
          <leafValues>
            -5.7055443525314331e-02 6.7556631565093994e-01</leafValues></_>
        <_>
          <internalNodes>
            0 -1 199 1.8428528681397438e-02</internalNodes>
          <leafValues>
            -5.6010764092206955e-02 6.1299985647201538e-01</leafValues></_>
        <_>
          <internalNodes>
            0 -1 164 -5.8471271768212318e-03</internalNodes>
          <leafValues>
            2.3172093927860260e-01 -2.0965871214866638e-01</leafValues></_>
        <_>
          <internalNodes>
            0 -1 324 -6.3430145382881165e-04</internalNodes>
          <leafValues>
            -3.7485316395759583e-01 1.1010543256998062e-01</leafValues></_>
        <_>
          <internalNodes>
            0 -1 224 1.0676832171157002e-03</internalNodes>
          <leafValues>
            -1.1399866640567780e-01 3.4630706906318665e-01</leafValues></_>
        <_>
          <internalNodes>
            0 -1 114 -9.1961288126185536e-04</internalNodes>
          <leafValues>
            1.7678661644458771e-01 -2.3940278589725494e-01</leafValues></_>
        <_>
          <internalNodes>
            0 -1 185 -1.7711974214762449e-04</internalNodes>
          <leafValues>
            -2.3223085701465607e-01 1.6635353863239288e-01</leafValues></_>
        <_>
          <internalNodes>
            0 -1 200 4.8874923959374428e-04</internalNodes>
          <leafValues>
            -1.2006177008152008e-01 3.1546413898468018e-01</leafValues></_>
        <_>
          <internalNodes>
            0 -1 314 -8.5548940114676952e-04</internalNodes>
          <leafValues>
            -2.9830160737037659e-01 1.4571806788444519e-01</leafValues></_>
        <_>
          <internalNodes>
            0 -1 45 6.2631173059344292e-03</internalNodes>
          <leafValues>
            5.4637022316455841e-02 -7.1198803186416626e-01</leafValues></_>
        <_>
          <internalNodes>
            0 -1 78 -2.7009332552552223e-04</internalNodes>
          <leafValues>
            1.5603099763393402e-01 -2.6000633835792542e-01</leafValues></_>
        <_>
          <internalNodes>
            0 -1 309 -4.0285044815391302e-04</internalNodes>
          <leafValues>
            -3.2119435071945190e-01 1.2150113284587860e-01</leafValues></_>
        <_>
          <internalNodes>
            0 -1 206 7.8765219077467918e-03</internalNodes>
          <leafValues>
            6.4745917916297913e-02 -5.4285627603530884e-01</leafValues></_>
        <_>
          <internalNodes>
            0 -1 214 4.1650114580988884e-03</internalNodes>
          <leafValues>
            -1.7829675972461700e-01 2.3081140220165253e-01</leafValues></_>
        <_>
          <internalNodes>
            0 -1 218 3.3699470805004239e-04</internalNodes>
          <leafValues>
            -1.7655694484710693e-01 2.2519028186798096e-01</leafValues></_>
        <_>
          <internalNodes>
            0 -1 104 -7.3082256130874157e-03</internalNodes>
          <leafValues>
            4.3021896481513977e-01 -8.4375441074371338e-02</leafValues></_>
        <_>
          <internalNodes>
            0 -1 271 2.4955696426331997e-03</internalNodes>
          <leafValues>
            -4.5386694371700287e-02 8.1976038217544556e-01</leafValues></_>
        <_>
          <internalNodes>
            0 -1 0 -5.9889978729188442e-04</internalNodes>
          <leafValues>
            -3.3135995268821716e-01 1.1494332551956177e-01</leafValues></_>
        <_>
          <internalNodes>
            0 -1 131 4.0407187771052122e-04</internalNodes>
          <leafValues>
            -9.3543767929077148e-02 3.8100638985633850e-01</leafValues></_>
        <_>
          <internalNodes>
            0 -1 187 -8.6604856187477708e-04</internalNodes>
          <leafValues>
            -4.0496033430099487e-01 9.2658139765262604e-02</leafValues></_>
        <_>
          <internalNodes>
            0 -1 110 1.0587163269519806e-03</internalNodes>
          <leafValues>
            -1.2466865777969360e-01 3.1273114681243896e-01</leafValues></_>
        <_>
          <internalNodes>
            0 -1 115 -1.7398841446265578e-03</internalNodes>
          <leafValues>
            4.3725427985191345e-01 -7.8805960714817047e-02</leafValues></_>
        <_>
          <internalNodes>
            0 -1 76 3.7802802398800850e-03</internalNodes>
          <leafValues>
            9.8782688379287720e-02 -3.9675056934356689e-01</leafValues></_>
        <_>
          <internalNodes>
            0 -1 283 2.4712355807423592e-03</internalNodes>
          <leafValues>
            -6.0703687369823456e-02 7.0319050550460815e-01</leafValues></_>
        <_>
          <internalNodes>
            0 -1 69 2.6572078932076693e-03</internalNodes>
          <leafValues>
            -1.1415191739797592e-01 3.1675934791564941e-01</leafValues></_></weakClassifiers></_>
    <!-- stage 6 -->
    <_>
      <maxWeakCount>38</maxWeakCount>
      <stageThreshold>-7.2219288349151611e-01</stageThreshold>
      <weakClassifiers>
        <_>
          <internalNodes>
            0 -1 165 -1.5916723757982254e-02</internalNodes>
          <leafValues>
            7.1428573131561279e-01 2.0814880728721619e-01</leafValues></_>
        <_>
          <internalNodes>
            0 -1 109 1.1910444125533104e-02</internalNodes>
          <leafValues>
            -7.1322672069072723e-02 7.0723754167556763e-01</leafValues></_>
        <_>
          <internalNodes>
            0 -1 149 -5.3786840289831161e-03</internalNodes>
          <leafValues>
            5.7087236642837524e-01 -1.1952590197324753e-01</leafValues></_>
        <_>
          <internalNodes>
            0 -1 149 1.0150674730539322e-02</internalNodes>
          <leafValues>
            -7.5704298913478851e-02 7.0004791021347046e-01</leafValues></_>
        <_>
          <internalNodes>
            0 -1 247 -1.1023399420082569e-02</internalNodes>
          <leafValues>
            5.6308734416961670e-01 -1.0315652936697006e-01</leafValues></_>
        <_>
          <internalNodes>
            0 -1 47 -5.4925126023590565e-03</internalNodes>
          <leafValues>
            4.3900480866432190e-01 -7.8357703983783722e-02</leafValues></_>
        <_>
          <internalNodes>
            0 -1 288 5.3197573870420456e-03</internalNodes>
          <leafValues>
            -6.4907953143119812e-02 6.4841198921203613e-01</leafValues></_>
        <_>
          <internalNodes>
            0 -1 194 2.0165055990219116e-02</internalNodes>
          <leafValues>
            -4.5440610498189926e-02 7.9105132818222046e-01</leafValues></_>
        <_>
          <internalNodes>
            0 -1 301 -2.8865537024103105e-04</internalNodes>
          <leafValues>
            -3.7112665176391602e-01 1.2664707005023956e-01</leafValues></_>
        <_>
          <internalNodes>
            0 -1 241 -5.3436763118952513e-04</internalNodes>
          <leafValues>
            2.3135222494602203e-01 -1.6809570789337158e-01</leafValues></_>
        <_>
          <internalNodes>
            0 -1 265 2.6074312627315521e-02</internalNodes>
          <leafValues>
            -4.3520115315914154e-02 8.5349977016448975e-01</leafValues></_>
        <_>
          <internalNodes>
            0 -1 95 -1.4814182650297880e-03</internalNodes>
          <leafValues>
            -3.0883759260177612e-01 1.2763664126396179e-01</leafValues></_>
        <_>
          <internalNodes>
            0 -1 82 5.2753253839910030e-04</internalNodes>
          <leafValues>
            1.3551078736782074e-01 -2.8173267841339111e-01</leafValues></_>
        <_>
          <internalNodes>
            0 -1 223 1.7895832657814026e-02</internalNodes>
          <leafValues>
            -5.8907922357320786e-02 6.5502142906188965e-01</leafValues></_>
        <_>
          <internalNodes>
            0 -1 295 1.0448882356286049e-02</internalNodes>
          <leafValues>
            -5.7131279259920120e-02 5.8170813322067261e-01</leafValues></_>
        <_>
          <internalNodes>
            0 -1 294 6.4301409292966127e-04</internalNodes>
          <leafValues>
            1.0361917316913605e-01 -4.0583676099777222e-01</leafValues></_>
        <_>
          <internalNodes>
            0 -1 32 3.1601681257598102e-04</internalNodes>
          <leafValues>
            -1.4972227811813354e-01 2.5693270564079285e-01</leafValues></_>
        <_>
          <internalNodes>
            0 -1 227 4.5028017484582961e-04</internalNodes>
          <leafValues>
            -1.7968028783798218e-01 2.1136318147182465e-01</leafValues></_>
        <_>
          <internalNodes>
            0 -1 162 4.9634780734777451e-03</internalNodes>
          <leafValues>
            5.8825016021728516e-02 -6.6529077291488647e-01</leafValues></_>
        <_>
          <internalNodes>
            0 -1 10 3.8129108725115657e-04</internalNodes>
          <leafValues>
            7.7914878726005554e-02 -4.5756429433822632e-01</leafValues></_>
        <_>
          <internalNodes>
            0 -1 11 -9.2272914946079254e-02</internalNodes>
          <leafValues>
            7.5148409605026245e-01 -4.9938865005970001e-02</leafValues></_>
        <_>
          <internalNodes>
            0 -1 207 5.4520675912499428e-03</internalNodes>
          <leafValues>
            6.2440421432256699e-02 -6.7055177688598633e-01</leafValues></_>
        <_>
          <internalNodes>
            0 -1 42 -1.3603389263153076e-02</internalNodes>
          <leafValues>
            3.4253704547882080e-01 -1.0639373958110809e-01</leafValues></_>
        <_>
          <internalNodes>
            0 -1 290 -1.9734478555619717e-03</internalNodes>
          <leafValues>
            5.1507580280303955e-01 -5.8637227863073349e-02</leafValues></_>
        <_>
          <internalNodes>
            0 -1 235 4.0794769302010536e-04</internalNodes>
          <leafValues>
            8.8089831173419952e-02 -4.3013277649879456e-01</leafValues></_>
        <_>
          <internalNodes>
            0 -1 269 5.3658802062273026e-03</internalNodes>
          <leafValues>
            -6.1639361083507538e-02 6.4543515443801880e-01</leafValues></_>
        <_>
          <internalNodes>
            0 -1 62 1.9133958965539932e-02</internalNodes>
          <leafValues>
            -5.0350103527307510e-02 6.8245154619216919e-01</leafValues></_>
        <_>
          <internalNodes>
            0 -1 154 -3.2656672410666943e-03</internalNodes>
          <leafValues>
            3.5569941997528076e-01 -1.2288384884595871e-01</leafValues></_>
        <_>
          <internalNodes>
            0 -1 212 5.4032600019127131e-05</internalNodes>
          <leafValues>
            1.6129980981349945e-01 -2.2452054917812347e-01</leafValues></_>
        <_>
          <internalNodes>
            0 -1 66 1.1790582211688161e-03</internalNodes>
          <leafValues>
            6.9745048880577087e-02 -5.2070653438568115e-01</leafValues></_>
        <_>
          <internalNodes>
            0 -1 244 -2.1236578468233347e-03</internalNodes>
          <leafValues>
            2.5966820120811462e-01 -1.5340463817119598e-01</leafValues></_>
        <_>
          <internalNodes>
            0 -1 316 3.1504032085649669e-04</internalNodes>
          <leafValues>
            1.3896715641021729e-01 -2.8996899724006653e-01</leafValues></_>
        <_>
          <internalNodes>
            0 -1 141 1.3215155340731144e-03</internalNodes>
          <leafValues>
            -1.4129973948001862e-01 2.8041398525238037e-01</leafValues></_>
        <_>
          <internalNodes>
            0 -1 17 -3.8116353098303080e-03</internalNodes>
          <leafValues>
            -9.0268671512603760e-01 4.7903295606374741e-02</leafValues></_>
        <_>
          <internalNodes>
            0 -1 58 -9.7948999609798193e-04</internalNodes>
          <leafValues>
            2.3337441682815552e-01 -1.6796836256980896e-01</leafValues></_>
        <_>
          <internalNodes>
            0 -1 134 -6.5460044424980879e-04</internalNodes>
          <leafValues>
            3.9382845163345337e-01 -9.1762512922286987e-02</leafValues></_>
        <_>
          <internalNodes>
            0 -1 80 2.9174257069826126e-03</internalNodes>
          <leafValues>
            -1.4182019233703613e-01 2.7085679769515991e-01</leafValues></_>
        <_>
          <internalNodes>
            0 -1 191 -1.4262800104916096e-03</internalNodes>
          <leafValues>
            6.2910330295562744e-01 -6.2329333275556564e-02</leafValues></_></weakClassifiers></_>
    <!-- stage 7 -->
    <_>
      <maxWeakCount>35</maxWeakCount>
      <stageThreshold>-6.1830645799636841e-01</stageThreshold>
      <weakClassifiers>
        <_>
          <internalNodes>
            0 -1 63 -3.2119131647050381e-03</internalNodes>
          <leafValues>
            6.1980199813842773e-01 1.8793970346450806e-01</leafValues></_>
        <_>
          <internalNodes>
            0 -1 273 -3.4744422882795334e-03</internalNodes>
          <leafValues>
            6.6995245218276978e-01 -4.6328499913215637e-02</leafValues></_>
        <_>
          <internalNodes>
            0 -1 237 1.1098255403339863e-02</internalNodes>
          <leafValues>
            -1.4944906532764435e-01 4.8601213097572327e-01</leafValues></_>
        <_>
          <internalNodes>
            0 -1 135 1.1426161974668503e-02</internalNodes>
          <leafValues>
            -3.8789223879575729e-02 5.5613535642623901e-01</leafValues></_>
        <_>
          <internalNodes>
            0 -1 276 1.3283473439514637e-02</internalNodes>
          <leafValues>
            -5.6173518300056458e-02 8.9731842279434204e-01</leafValues></_>
        <_>
          <internalNodes>
            0 -1 85 1.9232950871810317e-03</internalNodes>
          <leafValues>
            7.2987012565135956e-02 -4.9299335479736328e-01</leafValues></_>
        <_>
          <internalNodes>
            0 -1 152 -2.8596832416951656e-03</internalNodes>
          <leafValues>
            3.2262572646141052e-01 -1.0347186028957367e-01</leafValues></_>
        <_>
          <internalNodes>
            0 -1 154 9.7891381010413170e-03</internalNodes>
          <leafValues>
            -4.6399075537919998e-02 7.3343557119369507e-01</leafValues></_>
        <_>
          <internalNodes>
            0 -1 144 1.6729764640331268e-02</internalNodes>
          <leafValues>
            -8.2456953823566437e-02 4.6522712707519531e-01</leafValues></_>
        <_>
          <internalNodes>
            0 -1 292 -1.0246164165437222e-03</internalNodes>
          <leafValues>
            -4.6342492103576660e-01 7.8604184091091156e-02</leafValues></_>
        <_>
          <internalNodes>
            0 -1 230 2.1812193095684052e-02</internalNodes>
          <leafValues>
            -1.1308392137289047e-01 3.2122874259948730e-01</leafValues></_>
        <_>
          <internalNodes>
            0 -1 142 1.8097342690452933e-03</internalNodes>
          <leafValues>
            -1.7698381841182709e-01 2.1597529947757721e-01</leafValues></_>
        <_>
          <internalNodes>
            0 -1 319 -4.1212805081158876e-04</internalNodes>
          <leafValues>
            -3.6358550190925598e-01 9.6739627420902252e-02</leafValues></_>
        <_>
          <internalNodes>
            0 -1 326 -4.7982131945900619e-05</internalNodes>
          <leafValues>
            -2.2610512375831604e-01 1.5216048061847687e-01</leafValues></_>
        <_>
          <internalNodes>
            0 -1 278 -3.0130851082503796e-03</internalNodes>
          <leafValues>
            3.5436040163040161e-01 -9.3061104416847229e-02</leafValues></_>
        <_>
          <internalNodes>
            0 -1 137 1.1991993233095855e-04</internalNodes>
          <leafValues>
            -1.6123779118061066e-01 2.0758217573165894e-01</leafValues></_>
        <_>
          <internalNodes>
            0 -1 46 -1.9794905092567205e-03</internalNodes>
          <leafValues>
            3.1240102648735046e-01 -1.1332862824201584e-01</leafValues></_>
        <_>
          <internalNodes>
            0 -1 94 5.0027268007397652e-03</internalNodes>
          <leafValues>
            5.1220394670963287e-02 -7.1401590108871460e-01</leafValues></_>
        <_>
          <internalNodes>
            0 -1 258 6.2195123173296452e-03</internalNodes>
          <leafValues>
            -1.8389697372913361e-01 1.8149797618389130e-01</leafValues></_>
        <_>
          <internalNodes>
            0 -1 188 1.7531851772218943e-03</internalNodes>
          <leafValues>
            -1.5304972231388092e-01 2.3434641957283020e-01</leafValues></_>
        <_>
          <internalNodes>
            0 -1 103 1.2303226627409458e-02</internalNodes>
          <leafValues>
            -5.3718961775302887e-02 7.0492750406265259e-01</leafValues></_>
        <_>
          <internalNodes>
            0 -1 216 3.2122163102030754e-03</internalNodes>
          <leafValues>
            -1.3401575386524200e-01 2.8423088788986206e-01</leafValues></_>
        <_>
          <internalNodes>
            0 -1 262 7.6616676524281502e-03</internalNodes>
          <leafValues>
            1.1663164198398590e-01 -3.4499424695968628e-01</leafValues></_>
        <_>
          <internalNodes>
            0 -1 92 1.2292877770960331e-02</internalNodes>
          <leafValues>
            -4.9622289836406708e-02 7.5636935234069824e-01</leafValues></_>
        <_>
          <internalNodes>
            0 -1 298 2.7500374708324671e-03</internalNodes>
          <leafValues>
            8.0966219305992126e-02 -4.7429955005645752e-01</leafValues></_>
        <_>
          <internalNodes>
            0 -1 118 7.5166644528508186e-03</internalNodes>
          <leafValues>
            7.9286180436611176e-02 -4.4426047801971436e-01</leafValues></_>
        <_>
          <internalNodes>
            0 -1 9 4.4215568777872249e-05</internalNodes>
          <leafValues>
            -1.8092696368694305e-01 1.7858402431011200e-01</leafValues></_>
        <_>
          <internalNodes>
            0 -1 74 1.3428509701043367e-03</internalNodes>
          <leafValues>
            -1.2442993372678757e-01 2.5966414809226990e-01</leafValues></_>
        <_>
          <internalNodes>
            0 -1 256 1.2750804889947176e-03</internalNodes>
          <leafValues>
            -5.2340511232614517e-02 6.2376022338867188e-01</leafValues></_>
        <_>
          <internalNodes>
            0 -1 13 -1.7777095490600914e-04</internalNodes>
          <leafValues>
            1.6870702803134918e-01 -2.2243119776248932e-01</leafValues></_>
        <_>
          <internalNodes>
            0 -1 67 -7.0685514947399497e-04</internalNodes>
          <leafValues>
            -3.2382556796073914e-01 1.0949630290269852e-01</leafValues></_>
        <_>
          <internalNodes>
            0 -1 26 4.1744657792150974e-03</internalNodes>
          <leafValues>
            -8.9439906179904938e-02 4.2655029892921448e-01</leafValues></_>
        <_>
          <internalNodes>
            0 -1 98 -2.9029138386249542e-04</internalNodes>
          <leafValues>
            -3.4940063953399658e-01 1.0594144463539124e-01</leafValues></_>
        <_>
          <internalNodes>
            0 -1 99 4.7557984362356365e-04</internalNodes>
          <leafValues>
            -1.6500794887542725e-01 2.0913101732730865e-01</leafValues></_>
        <_>
          <internalNodes>
            0 -1 93 -7.2467639110982418e-03</internalNodes>
          <leafValues>
            -3.5556256771087646e-01 9.7702048718929291e-02</leafValues></_></weakClassifiers></_>
    <!-- stage 8 -->
    <_>
      <maxWeakCount>44</maxWeakCount>
      <stageThreshold>-8.0823874473571777e-01</stageThreshold>
      <weakClassifiers>
        <_>
          <internalNodes>
            0 -1 88 8.7139094248414040e-03</internalNodes>
          <leafValues>
            1.9473189115524292e-01 6.7048054933547974e-01</leafValues></_>
        <_>
          <internalNodes>
            0 -1 270 1.3726741308346391e-03</internalNodes>
          <leafValues>
            -1.4950105547904968e-01 3.7485593557357788e-01</leafValues></_>
        <_>
          <internalNodes>
            0 -1 156 4.8745069652795792e-03</internalNodes>
          <leafValues>
            -1.2580825388431549e-01 4.8862296342849731e-01</leafValues></_>
        <_>
          <internalNodes>
            0 -1 150 3.6195598077028990e-03</internalNodes>
          <leafValues>
            -1.2435473501682281e-01 4.8635011911392212e-01</leafValues></_>
        <_>
          <internalNodes>
            0 -1 100 -4.2214859277009964e-03</internalNodes>
          <leafValues>
            -3.3867612481117249e-01 1.6868646442890167e-01</leafValues></_>
        <_>
          <internalNodes>
            0 -1 101 2.3371151182800531e-03</internalNodes>
          <leafValues>
            -1.7873395979404449e-01 2.8273922204971313e-01</leafValues></_>
        <_>
          <internalNodes>
            0 -1 140 -5.7451706379652023e-03</internalNodes>
          <leafValues>
            2.1216118335723877e-01 -2.7757403254508972e-01</leafValues></_>
        <_>
          <internalNodes>
            0 -1 184 -3.1512518762610853e-04</internalNodes>
          <leafValues>
            1.7671644687652588e-01 -2.1131651103496552e-01</leafValues></_>
        <_>
          <internalNodes>
            0 -1 81 3.8700648583471775e-03</internalNodes>
          <leafValues>
            -9.0570434927940369e-02 4.0222233533859253e-01</leafValues></_>
        <_>
          <internalNodes>
            0 -1 7 -9.0012210421264172e-04</internalNodes>
          <leafValues>
            -3.8915371894836426e-01 1.0493285208940506e-01</leafValues></_>
        <_>
          <internalNodes>
            0 -1 222 7.1552786976099014e-03</internalNodes>
          <leafValues>
            -1.5877172350883484e-01 2.4599164724349976e-01</leafValues></_>
        <_>
          <internalNodes>
            0 -1 313 8.5931830108165741e-03</internalNodes>
          <leafValues>
            6.7647494375705719e-02 -5.8274430036544800e-01</leafValues></_>
        <_>
          <internalNodes>
            0 -1 286 -4.5431251637637615e-03</internalNodes>
          <leafValues>
            6.2363487482070923e-01 -6.3157379627227783e-02</leafValues></_>
        <_>
          <internalNodes>
            0 -1 305 -1.5772120095789433e-03</internalNodes>
          <leafValues>
            -3.7865728139877319e-01 9.5525659620761871e-02</leafValues></_>
        <_>
          <internalNodes>
            0 -1 77 2.2566732950508595e-03</internalNodes>
          <leafValues>
            4.8587378114461899e-02 -6.9929963350296021e-01</leafValues></_>
        <_>
          <internalNodes>
            0 -1 173 -3.0541550950147212e-04</internalNodes>
          <leafValues>
            1.3757063448429108e-01 -2.4090152978897095e-01</leafValues></_>
        <_>
          <internalNodes>
            0 -1 6 3.0942885205149651e-03</internalNodes>
          <leafValues>
            -1.3246446847915649e-01 2.5090277194976807e-01</leafValues></_>
        <_>
          <internalNodes>
            0 -1 37 3.1231506727635860e-03</internalNodes>
          <leafValues>
            8.4581054747104645e-02 -4.1384422779083252e-01</leafValues></_>
        <_>
          <internalNodes>
            0 -1 122 1.3006009161472321e-02</internalNodes>
          <leafValues>
            -4.9352604895830154e-02 6.7480337619781494e-01</leafValues></_>
        <_>
          <internalNodes>
            0 -1 145 4.2491769418120384e-03</internalNodes>
          <leafValues>
            -6.4760617911815643e-02 5.0536394119262695e-01</leafValues></_>
        <_>
          <internalNodes>
            0 -1 35 1.0510295629501343e-01</internalNodes>
          <leafValues>
            -5.0565294921398163e-02 6.8074864149093628e-01</leafValues></_>
        <_>
          <internalNodes>
            0 -1 30 9.8988908575847745e-05</internalNodes>
          <leafValues>
            -1.6095808148384094e-01 2.1146525442600250e-01</leafValues></_>
        <_>
          <internalNodes>
            0 -1 234 -3.2258508726954460e-03</internalNodes>
          <leafValues>
            7.8163194656372070e-01 -3.8786791265010834e-02</leafValues></_>
        <_>
          <internalNodes>
            0 -1 161 1.3097396586090326e-03</internalNodes>
          <leafValues>
            1.1354186385869980e-01 -3.2251712679862976e-01</leafValues></_>
        <_>
          <internalNodes>
            0 -1 299 3.7363786250352859e-03</internalNodes>
          <leafValues>
            -1.1950138211250305e-01 2.7591636776924133e-01</leafValues></_>
        <_>
          <internalNodes>
            0 -1 228 7.0266739930957556e-04</internalNodes>
          <leafValues>
            1.4332060515880585e-01 -2.8379788994789124e-01</leafValues></_>
        <_>
          <internalNodes>
            0 -1 280 -3.0401740223169327e-03</internalNodes>
          <leafValues>
            9.4258981943130493e-01 -3.7850290536880493e-02</leafValues></_>
        <_>
          <internalNodes>
            0 -1 97 5.3897183388471603e-03</internalNodes>
          <leafValues>
            5.5129833519458771e-02 -7.1134203672409058e-01</leafValues></_>
        <_>
          <internalNodes>
            0 -1 289 5.8850538916885853e-03</internalNodes>
          <leafValues>
            -5.7759162038564682e-02 6.1865001916885376e-01</leafValues></_>
        <_>
          <internalNodes>
            0 -1 21 -1.7352605937048793e-04</internalNodes>
          <leafValues>
            1.9799225032329559e-01 -1.7020773887634277e-01</leafValues></_>
        <_>
          <internalNodes>
            0 -1 16 -5.6531664449721575e-04</internalNodes>
          <leafValues>
            -2.6653045415878296e-01 1.3102346658706665e-01</leafValues></_>
        <_>
          <internalNodes>
            0 -1 71 1.2756427749991417e-02</internalNodes>
          <leafValues>
            -6.0362718999385834e-02 5.8916729688644409e-01</leafValues></_>
        <_>
          <internalNodes>
            0 -1 148 2.0351754501461983e-03</internalNodes>
          <leafValues>
            -1.7271253466606140e-01 1.9941653311252594e-01</leafValues></_>
        <_>
          <internalNodes>
            0 -1 2 5.9131840243935585e-03</internalNodes>
          <leafValues>
            4.3338328599929810e-02 -7.9726266860961914e-01</leafValues></_>
        <_>
          <internalNodes>
            0 -1 226 -2.3346677422523499e-02</internalNodes>
          <leafValues>
            3.2007154822349548e-01 -1.1193820089101791e-01</leafValues></_>
        <_>
          <internalNodes>
            0 -1 12 3.7994825106579810e-05</internalNodes>
          <leafValues>
            -1.6789656877517700e-01 2.1457238495349884e-01</leafValues></_>
        <_>
          <internalNodes>
            0 -1 20 9.9881121423095465e-04</internalNodes>
          <leafValues>
            -1.5253527462482452e-01 2.1411477029323578e-01</leafValues></_>
        <_>
          <internalNodes>
            0 -1 308 5.9872400015592575e-03</internalNodes>
          <leafValues>
            5.7600755244493484e-02 -5.9152668714523315e-01</leafValues></_>
        <_>
          <internalNodes>
            0 -1 311 -1.0010683035943657e-04</internalNodes>
          <leafValues>
            -2.5459620356559753e-01 1.2878575921058655e-01</leafValues></_>
        <_>
          <internalNodes>
            0 -1 211 1.8374584615230560e-03</internalNodes>
          <leafValues>
            -1.6796109080314636e-01 2.3122775554656982e-01</leafValues></_>
        <_>
          <internalNodes>
            0 -1 245 1.6545742750167847e-02</internalNodes>
          <leafValues>
            6.8292431533336639e-02 -4.8239251971244812e-01</leafValues></_>
        <_>
          <internalNodes>
            0 -1 297 3.8349544629454613e-03</internalNodes>
          <leafValues>
            -4.8347212374210358e-02 8.2137179374694824e-01</leafValues></_>
        <_>
          <internalNodes>
            0 -1 169 -5.0520151853561401e-04</internalNodes>
          <leafValues>
            3.0830436944961548e-01 -1.0510534048080444e-01</leafValues></_>
        <_>
          <internalNodes>
            0 -1 22 -1.4504855871200562e-01</internalNodes>
          <leafValues>
            7.5241196155548096e-01 -4.0956433862447739e-02</leafValues></_></weakClassifiers></_>
    <!-- stage 9 -->
    <_>
      <maxWeakCount>41</maxWeakCount>
      <stageThreshold>-6.5671575069427490e-01</stageThreshold>
      <weakClassifiers>
        <_>
          <internalNodes>
            0 -1 143 8.0902501940727234e-03</internalNodes>
          <leafValues>
            2.6450639963150024e-01 8.6127167940139771e-01</leafValues></_>
        <_>
          <internalNodes>
            0 -1 273 -2.4968842044472694e-03</internalNodes>
          <leafValues>
            5.6930452585220337e-01 -1.4006452262401581e-01</leafValues></_>
        <_>
          <internalNodes>
            0 -1 203 1.0525580495595932e-02</internalNodes>
          <leafValues>
            -8.6559411138296127e-03 6.3157188892364502e-01</leafValues></_>
        <_>
          <internalNodes>
            0 -1 213 3.4464341588318348e-03</internalNodes>
          <leafValues>
            -7.8555986285209656e-02 5.7793033123016357e-01</leafValues></_>
        <_>
          <internalNodes>
            0 -1 287 9.1768587008118629e-03</internalNodes>
          <leafValues>
            -5.9453755617141724e-02 7.2072696685791016e-01</leafValues></_>
        <_>
          <internalNodes>
            0 -1 89 4.2986613698303699e-03</internalNodes>
          <leafValues>
            -9.3509368598461151e-02 4.3715661764144897e-01</leafValues></_>
        <_>
          <internalNodes>
            0 -1 221 -1.9151116721332073e-03</internalNodes>
          <leafValues>
            9.6015477180480957e-01 -3.8107018917798996e-02</leafValues></_>
        <_>
          <internalNodes>
            0 -1 61 -5.5493409745395184e-03</internalNodes>
          <leafValues>
            -3.5817191004753113e-01 1.0860224068164825e-01</leafValues></_>
        <_>
          <internalNodes>
            0 -1 65 3.4471149556338787e-03</internalNodes>
          <leafValues>
            8.0825909972190857e-02 -4.3221253156661987e-01</leafValues></_>
        <_>
          <internalNodes>
            0 -1 111 1.1305255815386772e-02</internalNodes>
          <leafValues>
            -5.3760837763547897e-02 6.9383680820465088e-01</leafValues></_>
        <_>
          <internalNodes>
            0 -1 96 -2.2288353648036718e-03</internalNodes>
          <leafValues>
            2.0265117287635803e-01 -1.7138184607028961e-01</leafValues></_>
        <_>
          <internalNodes>
            0 -1 190 2.1039750427007675e-02</internalNodes>
          <leafValues>
            -4.7165982425212860e-02 7.5945740938186646e-01</leafValues></_>
        <_>
          <internalNodes>
            0 -1 323 -2.3644131142646074e-03</internalNodes>
          <leafValues>
            -5.6455880403518677e-01 7.6280191540718079e-02</leafValues></_>
        <_>
          <internalNodes>
            0 -1 278 1.3769252225756645e-02</internalNodes>
          <leafValues>
            -4.1219998151063919e-02 7.9596775770187378e-01</leafValues></_>
        <_>
          <internalNodes>
            0 -1 15 4.5330880675464869e-04</internalNodes>
          <leafValues>
            1.0971137136220932e-01 -3.3350810408592224e-01</leafValues></_>
        <_>
          <internalNodes>
            0 -1 153 1.5362967969849706e-03</internalNodes>
          <leafValues>
            -5.9805735945701599e-02 6.3687402009963989e-01</leafValues></_>
        <_>
          <internalNodes>
            0 -1 116 9.6779074519872665e-03</internalNodes>
          <leafValues>
            7.3417127132415771e-02 -4.9404722452163696e-01</leafValues></_>
        <_>
          <internalNodes>
            0 -1 41 -9.7206165082752705e-04</internalNodes>
          <leafValues>
            3.4150442481040955e-01 -9.8845459520816803e-02</leafValues></_>
        <_>
          <internalNodes>
            0 -1 138 4.8634498380124569e-03</internalNodes>
          <leafValues>
            6.4732290804386139e-02 -5.5117356777191162e-01</leafValues></_>
        <_>
          <internalNodes>
            0 -1 68 -5.3159729577600956e-03</internalNodes>
          <leafValues>
            -4.2281678318977356e-01 7.6851695775985718e-02</leafValues></_>
        <_>
          <internalNodes>
            0 -1 117 -4.0091818664222956e-04</internalNodes>
          <leafValues>
            2.0836862921714783e-01 -1.6035427153110504e-01</leafValues></_>
        <_>
          <internalNodes>
            0 -1 23 1.4288725797086954e-03</internalNodes>
          <leafValues>
            9.1090150177478790e-02 -3.4656736254692078e-01</leafValues></_>
        <_>
          <internalNodes>
            0 -1 163 2.8084779623895884e-03</internalNodes>
          <leafValues>
            7.5873881578445435e-02 -4.3866848945617676e-01</leafValues></_>
        <_>
          <internalNodes>
            0 -1 31 1.7149336636066437e-03</internalNodes>
          <leafValues>
            -1.0385364294052124e-01 3.1058591604232788e-01</leafValues></_>
        <_>
          <internalNodes>
            0 -1 306 -3.4809727221727371e-03</internalNodes>
          <leafValues>
            -8.3081483840942383e-01 4.1194144636392593e-02</leafValues></_>
        <_>
          <internalNodes>
            0 -1 51 -4.6099781990051270e-02</internalNodes>
          <leafValues>
            5.7322180271148682e-01 -6.1138294637203217e-02</leafValues></_>
        <_>
          <internalNodes>
            0 -1 167 -1.5734232729300857e-03</internalNodes>
          <leafValues>
            5.3700888156890869e-01 -5.3923878818750381e-02</leafValues></_>
        <_>
          <internalNodes>
            0 -1 210 8.6496304720640182e-03</internalNodes>
          <leafValues>
            6.7954957485198975e-02 -5.0879085063934326e-01</leafValues></_>
        <_>
          <internalNodes>
            0 -1 263 5.6345914490520954e-03</internalNodes>
          <leafValues>
            1.1979887634515762e-01 -2.9477807879447937e-01</leafValues></_>
        <_>
          <internalNodes>
            0 -1 84 1.4591182116419077e-04</internalNodes>
          <leafValues>
            -1.5847881138324738e-01 2.2489392757415771e-01</leafValues></_>
        <_>
          <internalNodes>
            0 -1 86 -5.8554122224450111e-03</internalNodes>
          <leafValues>
            -5.1324951648712158e-01 6.8359509110450745e-02</leafValues></_>
        <_>
          <internalNodes>
            0 -1 49 4.4662295840680599e-03</internalNodes>
          <leafValues>
            8.1430040299892426e-02 -3.7577882409095764e-01</leafValues></_>
        <_>
          <internalNodes>
            0 -1 204 -4.5622384641319513e-04</internalNodes>
          <leafValues>
            1.7587052285671234e-01 -1.9513139128684998e-01</leafValues></_>
        <_>
          <internalNodes>
            0 -1 36 1.7492737970314920e-04</internalNodes>
          <leafValues>
            -1.6372630000114441e-01 2.1396932005882263e-01</leafValues></_>
        <_>
          <internalNodes>
            0 -1 172 -8.2765081897377968e-03</internalNodes>
          <leafValues>
            5.3685534000396729e-01 -6.4322583377361298e-02</leafValues></_>
        <_>
          <internalNodes>
            0 -1 196 1.3498805928975344e-03</internalNodes>
          <leafValues>
            -9.9994607269763947e-02 3.6678192019462585e-01</leafValues></_>
        <_>
          <internalNodes>
            0 -1 286 -4.0459204465150833e-03</internalNodes>
          <leafValues>
            5.7682567834854126e-01 -6.1058305203914642e-02</leafValues></_>
        <_>
          <internalNodes>
            0 -1 300 4.5154956751503050e-04</internalNodes>
          <leafValues>
            -1.6384300589561462e-01 2.1991877257823944e-01</leafValues></_>
        <_>
          <internalNodes>
            0 -1 171 8.5052195936441422e-03</internalNodes>
          <leafValues>
            -7.3679231107234955e-02 5.2662932872772217e-01</leafValues></_>
        <_>
          <internalNodes>
            0 -1 50 1.0616530198603868e-03</internalNodes>
          <leafValues>
            -1.4370775222778320e-01 2.3473349213600159e-01</leafValues></_>
        <_>
          <internalNodes>
            0 -1 186 2.0765118824783713e-04</internalNodes>
          <leafValues>
            1.1318270862102509e-01 -3.3558887243270874e-01</leafValues></_></weakClassifiers></_></stages>
  <features>
    <_>
      <rects>
        <_>
          0 2 1 4 -1.</_>
        <_>
          0 4 1 2 2.</_></rects>
      <tilted>0</tilted></_>
    <_>
      <rects>
        <_>
          0 20 9 9 -1.</_>
        <_>
          0 23 9 3 3.</_></rects>
      <tilted>0</tilted></_>
    <_>
      <rects>
        <_>
          0 22 4 4 -1.</_>
        <_>
          0 22 2 2 2.</_>
        <_>
          2 24 2 2 2.</_></rects>
      <tilted>0</tilted></_>
    <_>
      <rects>
        <_>
          0 24 2 2 -1.</_>
        <_>
          0 24 1 1 2.</_>
        <_>
          1 25 1 1 2.</_></rects>
      <tilted>0</tilted></_>
    <_>
      <rects>
        <_>
          0 25 24 4 -1.</_>
        <_>
          0 25 12 2 2.</_>
        <_>
          12 27 12 2 2.</_></rects>
      <tilted>0</tilted></_>
    <_>
      <rects>
        <_>
          0 26 10 3 -1.</_>
        <_>
          0 27 10 1 3.</_></rects>
      <tilted>0</tilted></_>
    <_>
      <rects>
        <_>
          0 29 18 1 -1.</_>
        <_>
          6 29 6 1 3.</_></rects>
      <tilted>0</tilted></_>
    <_>
      <rects>
        <_>
          1 0 2 6 -1.</_>
        <_>
          1 0 1 3 2.</_>
        <_>
          2 3 1 3 2.</_></rects>
      <tilted>0</tilted></_>
    <_>
      <rects>
        <_>
          1 5 4 6 -1.</_>
        <_>
          1 5 2 3 2.</_>
        <_>
          3 8 2 3 2.</_></rects>
      <tilted>0</tilted></_>
    <_>
      <rects>
        <_>
          1 9 13 3 -1.</_>
        <_>
          1 10 13 1 3.</_></rects>
      <tilted>0</tilted></_>
    <_>
      <rects>
        <_>
          1 12 1 2 -1.</_>
        <_>
          1 13 1 1 2.</_></rects>
      <tilted>0</tilted></_>
    <_>
      <rects>
        <_>
          1 14 10 14 -1.</_>
        <_>
          1 21 10 7 2.</_></rects>
      <tilted>0</tilted></_>
    <_>
      <rects>
        <_>
          1 17 1 9 -1.</_>
        <_>
          1 20 1 3 3.</_></rects>
      <tilted>0</tilted></_>
    <_>
      <rects>
        <_>
          2 0 20 4 -1.</_>
        <_>
          2 0 10 2 2.</_>
        <_>
          12 2 10 2 2.</_></rects>
      <tilted>0</tilted></_>
    <_>
      <rects>
        <_>
          2 1 24 4 -1.</_>
        <_>
          2 1 12 2 2.</_>
        <_>
          14 3 12 2 2.</_></rects>
      <tilted>0</tilted></_>
    <_>
      <rects>
        <_>
          2 7 2 2 -1.</_>
        <_>
          2 8 2 1 2.</_></rects>
      <tilted>0</tilted></_>
    <_>
      <rects>
        <_>
          2 14 2 7 -1.</_>
        <_>
          3 14 1 7 2.</_></rects>
      <tilted>0</tilted></_>
    <_>
      <rects>
        <_>
          2 26 6 2 -1.</_>
        <_>
          2 26 3 1 2.</_>
        <_>
          5 27 3 1 2.</_></rects>
      <tilted>0</tilted></_>
    <_>
      <rects>
        <_>
          2 28 1 2 -1.</_>
        <_>
          2 29 1 1 2.</_></rects>
      <tilted>0</tilted></_>
    <_>
      <rects>
        <_>
          3 1 21 2 -1.</_>
        <_>
          3 2 21 1 2.</_></rects>
      <tilted>0</tilted></_>
    <_>
      <rects>
        <_>
          3 3 13 6 -1.</_>
        <_>
          3 5 13 2 3.</_></rects>
      <tilted>0</tilted></_>
    <_>
      <rects>
        <_>
          3 4 3 19 -1.</_>
        <_>
          4 4 1 19 3.</_></rects>
      <tilted>0</tilted></_>
    <_>
      <rects>
        <_>
          3 16 27 6 -1.</_>
        <_>
          12 16 9 6 3.</_></rects>
      <tilted>0</tilted></_>
    <_>
      <rects>
        <_>
          3 18 2 5 -1.</_>
        <_>
          4 18 1 5 2.</_></rects>
      <tilted>0</tilted></_>
    <_>
      <rects>
        <_>
          4 1 24 1 -1.</_>
        <_>
          12 1 8 1 3.</_></rects>
      <tilted>0</tilted></_>
    <_>
      <rects>
        <_>
          4 8 2 22 -1.</_>
        <_>
          5 8 1 22 2.</_></rects>
      <tilted>0</tilted></_>
    <_>
      <rects>
        <_>
          4 10 3 18 -1.</_>
        <_>
          5 10 1 18 3.</_></rects>
      <tilted>0</tilted></_>
    <_>
      <rects>
        <_>
          4 12 3 3 -1.</_>
        <_>
          5 12 1 3 3.</_></rects>
      <tilted>0</tilted></_>
    <_>
      <rects>
        <_>
          4 21 25 2 -1.</_>
        <_>
          4 22 25 1 2.</_></rects>
      <tilted>0</tilted></_>
    <_>
      <rects>
        <_>
          4 22 14 6 -1.</_>
        <_>
          4 22 7 3 2.</_>
        <_>
          11 25 7 3 2.</_></rects>
      <tilted>0</tilted></_>
    <_>
      <rects>
        <_>
          5 3 9 2 -1.</_>
        <_>
          8 3 3 2 3.</_></rects>
      <tilted>0</tilted></_>
    <_>
      <rects>
        <_>
          5 10 3 5 -1.</_>
        <_>
          6 10 1 5 3.</_></rects>
      <tilted>0</tilted></_>
    <_>
      <rects>
        <_>
          5 11 4 3 -1.</_>
        <_>
          5 12 4 1 3.</_></rects>
      <tilted>0</tilted></_>
    <_>
      <rects>
        <_>
          5 12 3 4 -1.</_>
        <_>
          6 12 1 4 3.</_></rects>
      <tilted>0</tilted></_>
    <_>
      <rects>
        <_>
          5 13 2 4 -1.</_>
        <_>
          6 13 1 4 2.</_></rects>
      <tilted>0</tilted></_>
    <_>
      <rects>
        <_>
          5 13 22 7 -1.</_>
        <_>
          16 13 11 7 2.</_></rects>
      <tilted>0</tilted></_>
    <_>
      <rects>
        <_>
          5 14 5 6 -1.</_>
        <_>
          5 16 5 2 3.</_></rects>
      <tilted>0</tilted></_>
    <_>
      <rects>
        <_>
          5 22 6 4 -1.</_>
        <_>
          5 22 3 2 2.</_>
        <_>
          8 24 3 2 2.</_></rects>
      <tilted>0</tilted></_>
    <_>
      <rects>
        <_>
          6 5 2 20 -1.</_>
        <_>
          6 5 1 10 2.</_>
        <_>
          7 15 1 10 2.</_></rects>
      <tilted>0</tilted></_>
    <_>
      <rects>
        <_>
          6 6 11 6 -1.</_>
        <_>
          6 8 11 2 3.</_></rects>
      <tilted>0</tilted></_>
    <_>
      <rects>
        <_>
          6 6 17 2 -1.</_>
        <_>
          6 7 17 1 2.</_></rects>
      <tilted>0</tilted></_>
    <_>
      <rects>
        <_>
          6 12 2 6 -1.</_>
        <_>
          6 12 1 3 2.</_>
        <_>
          7 15 1 3 2.</_></rects>
      <tilted>0</tilted></_>
    <_>
      <rects>
        <_>
          6 14 14 9 -1.</_>
        <_>
          6 17 14 3 3.</_></rects>
      <tilted>0</tilted></_>
    <_>
      <rects>
        <_>
          6 17 21 6 -1.</_>
        <_>
          6 19 21 2 3.</_></rects>
      <tilted>0</tilted></_>
    <_>
      <rects>
        <_>
          6 20 12 7 -1.</_>
        <_>
          12 20 6 7 2.</_></rects>
      <tilted>0</tilted></_>
    <_>
      <rects>
        <_>
          6 22 4 6 -1.</_>
        <_>
          6 22 2 3 2.</_>
        <_>
          8 25 2 3 2.</_></rects>
      <tilted>0</tilted></_>
    <_>
      <rects>
        <_>
          6 27 10 3 -1.</_>
        <_>
          6 28 10 1 3.</_></rects>
      <tilted>0</tilted></_>
    <_>
      <rects>
        <_>
          6 28 12 2 -1.</_>
        <_>
          6 28 6 1 2.</_>
        <_>
          12 29 6 1 2.</_></rects>
      <tilted>0</tilted></_>
    <_>
      <rects>
        <_>
          6 28 14 2 -1.</_>
        <_>
          6 28 7 1 2.</_>
        <_>
          13 29 7 1 2.</_></rects>
      <tilted>0</tilted></_>
    <_>
      <rects>
        <_>
          7 0 6 6 -1.</_>
        <_>
          7 0 3 3 2.</_>
        <_>
          10 3 3 3 2.</_></rects>
      <tilted>0</tilted></_>
    <_>
      <rects>
        <_>
          7 0 12 2 -1.</_>
        <_>
          7 0 6 1 2.</_>
        <_>
          13 1 6 1 2.</_></rects>
      <tilted>0</tilted></_>
    <_>
      <rects>
        <_>
          7 7 22 3 -1.</_>
        <_>
          18 7 11 3 2.</_></rects>
      <tilted>0</tilted></_>
    <_>
      <rects>
        <_>
          7 9 18 11 -1.</_>
        <_>
          13 9 6 11 3.</_></rects>
      <tilted>0</tilted></_>
    <_>
      <rects>
        <_>
          7 12 21 3 -1.</_>
        <_>
          7 13 21 1 3.</_></rects>
      <tilted>0</tilted></_>
    <_>
      <rects>
        <_>
          7 28 10 2 -1.</_>
        <_>
          7 28 5 1 2.</_>
        <_>
          12 29 5 1 2.</_></rects>
      <tilted>0</tilted></_>
    <_>
      <rects>
        <_>
          8 0 22 3 -1.</_>
        <_>
          8 1 22 1 3.</_></rects>
      <tilted>0</tilted></_>
    <_>
      <rects>
        <_>
          8 3 5 20 -1.</_>
        <_>
          8 13 5 10 2.</_></rects>
      <tilted>0</tilted></_>
    <_>
      <rects>
        <_>
          8 8 16 21 -1.</_>
        <_>
          16 8 8 21 2.</_></rects>
      <tilted>0</tilted></_>
    <_>
      <rects>
        <_>
          8 18 6 10 -1.</_>
        <_>
          8 18 3 5 2.</_>
        <_>
          11 23 3 5 2.</_></rects>
      <tilted>0</tilted></_>
    <_>
      <rects>
        <_>
          8 24 21 6 -1.</_>
        <_>
          15 24 7 6 3.</_></rects>
      <tilted>0</tilted></_>
    <_>
      <rects>
        <_>
          8 26 16 2 -1.</_>
        <_>
          16 26 8 2 2.</_></rects>
      <tilted>0</tilted></_>
    <_>
      <rects>
        <_>
          8 26 8 4 -1.</_>
        <_>
          8 28 8 2 2.</_></rects>
      <tilted>0</tilted></_>
    <_>
      <rects>
        <_>
          8 28 15 1 -1.</_>
        <_>
          13 28 5 1 3.</_></rects>
      <tilted>0</tilted></_>
    <_>
      <rects>
        <_>
          8 28 10 2 -1.</_>
        <_>
          8 28 5 1 2.</_>
        <_>
          13 29 5 1 2.</_></rects>
      <tilted>0</tilted></_>
    <_>
      <rects>
        <_>
          9 1 3 13 -1.</_>
        <_>
          10 1 1 13 3.</_></rects>
      <tilted>0</tilted></_>
    <_>
      <rects>
        <_>
          9 3 12 2 -1.</_>
        <_>
          9 4 12 1 2.</_></rects>
      <tilted>0</tilted></_>
    <_>
      <rects>
        <_>
          9 11 4 2 -1.</_>
        <_>
          9 11 2 1 2.</_>
        <_>
          11 12 2 1 2.</_></rects>
      <tilted>0</tilted></_>
    <_>
      <rects>
        <_>
          9 11 3 3 -1.</_>
        <_>
          9 12 3 1 3.</_></rects>
      <tilted>0</tilted></_>
    <_>
      <rects>
        <_>
          9 27 14 1 -1.</_>
        <_>
          16 27 7 1 2.</_></rects>
      <tilted>0</tilted></_>
    <_>
      <rects>
        <_>
          9 27 14 2 -1.</_>
        <_>
          9 27 7 1 2.</_>
        <_>
          16 28 7 1 2.</_></rects>
      <tilted>0</tilted></_>
    <_>
      <rects>
        <_>
          10 0 6 2 -1.</_>
        <_>
          10 0 3 1 2.</_>
        <_>
          13 1 3 1 2.</_></rects>
      <tilted>0</tilted></_>
    <_>
      <rects>
        <_>
          10 1 12 1 -1.</_>
        <_>
          14 1 4 1 3.</_></rects>
      <tilted>0</tilted></_>
    <_>
      <rects>
        <_>
          10 1 15 1 -1.</_>
        <_>
          15 1 5 1 3.</_></rects>
      <tilted>0</tilted></_>
    <_>
      <rects>
        <_>
          10 12 3 10 -1.</_>
        <_>
          11 12 1 10 3.</_></rects>
      <tilted>0</tilted></_>
    <_>
      <rects>
        <_>
          10 26 6 3 -1.</_>
        <_>
          12 26 2 3 3.</_></rects>
      <tilted>0</tilted></_>
    <_>
      <rects>
        <_>
          10 26 4 4 -1.</_>
        <_>
          12 26 2 4 2.</_></rects>
      <tilted>0</tilted></_>
    <_>
      <rects>
        <_>
          10 26 9 1 -1.</_>
        <_>
          13 26 3 1 3.</_></rects>
      <tilted>0</tilted></_>
    <_>
      <rects>
        <_>
          10 27 2 2 -1.</_>
        <_>
          10 28 2 1 2.</_></rects>
      <tilted>0</tilted></_>
    <_>
      <rects>
        <_>
          10 27 20 2 -1.</_>
        <_>
          10 27 10 1 2.</_>
        <_>
          20 28 10 1 2.</_></rects>
      <tilted>0</tilted></_>
    <_>
      <rects>
        <_>
          11 0 9 2 -1.</_>
        <_>
          14 0 3 2 3.</_></rects>
      <tilted>0</tilted></_>
    <_>
      <rects>
        <_>
          11 0 10 3 -1.</_>
        <_>
          11 1 10 1 3.</_></rects>
      <tilted>0</tilted></_>
    <_>
      <rects>
        <_>
          11 0 11 2 -1.</_>
        <_>
          11 1 11 1 2.</_></rects>
      <tilted>0</tilted></_>
    <_>
      <rects>
        <_>
          11 0 11 6 -1.</_>
        <_>
          11 3 11 3 2.</_></rects>
      <tilted>0</tilted></_>
    <_>
      <rects>
        <_>
          11 1 2 4 -1.</_>
        <_>
          11 3 2 2 2.</_></rects>
      <tilted>0</tilted></_>
    <_>
      <rects>
        <_>
          11 22 3 3 -1.</_>
        <_>
          12 22 1 3 3.</_></rects>
      <tilted>0</tilted></_>
    <_>
      <rects>
        <_>
          11 22 6 2 -1.</_>
        <_>
          11 22 3 1 2.</_>
        <_>
          14 23 3 1 2.</_></rects>
      <tilted>0</tilted></_>
    <_>
      <rects>
        <_>
          11 23 2 6 -1.</_>
        <_>
          11 25 2 2 3.</_></rects>
      <tilted>0</tilted></_>
    <_>
      <rects>
        <_>
          11 27 7 3 -1.</_>
        <_>
          11 28 7 1 3.</_></rects>
      <tilted>0</tilted></_>
    <_>
      <rects>
        <_>
          11 27 13 3 -1.</_>
        <_>
          11 28 13 1 3.</_></rects>
      <tilted>0</tilted></_>
    <_>
      <rects>
        <_>
          11 28 12 2 -1.</_>
        <_>
          11 28 6 1 2.</_>
        <_>
          17 29 6 1 2.</_></rects>
      <tilted>0</tilted></_>
    <_>
      <rects>
        <_>
          11 29 4 1 -1.</_>
        <_>
          13 29 2 1 2.</_></rects>
      <tilted>0</tilted></_>
    <_>
      <rects>
        <_>
          12 0 12 2 -1.</_>
        <_>
          12 0 6 1 2.</_>
        <_>
          18 1 6 1 2.</_></rects>
      <tilted>0</tilted></_>
    <_>
      <rects>
        <_>
          12 1 9 1 -1.</_>
        <_>
          15 1 3 1 3.</_></rects>
      <tilted>0</tilted></_>
    <_>
      <rects>
        <_>
          12 2 10 2 -1.</_>
        <_>
          17 2 5 2 2.</_></rects>
      <tilted>0</tilted></_>
    <_>
      <rects>
        <_>
          12 4 10 2 -1.</_>
        <_>
          12 4 5 1 2.</_>
        <_>
          17 5 5 1 2.</_></rects>
      <tilted>0</tilted></_>
    <_>
      <rects>
        <_>
          12 4 8 2 -1.</_>
        <_>
          12 5 8 1 2.</_></rects>
      <tilted>0</tilted></_>
    <_>
      <rects>
        <_>
          12 13 7 10 -1.</_>
        <_>
          12 18 7 5 2.</_></rects>
      <tilted>0</tilted></_>
    <_>
      <rects>
        <_>
          12 15 12 2 -1.</_>
        <_>
          12 15 6 1 2.</_>
        <_>
          18 16 6 1 2.</_></rects>
      <tilted>0</tilted></_>
    <_>
      <rects>
        <_>
          12 19 1 2 -1.</_>
        <_>
          12 20 1 1 2.</_></rects>
      <tilted>0</tilted></_>
    <_>
      <rects>
        <_>
          12 21 6 5 -1.</_>
        <_>
          14 21 2 5 3.</_></rects>
      <tilted>0</tilted></_>
    <_>
      <rects>
        <_>
          12 26 18 1 -1.</_>
        <_>
          18 26 6 1 3.</_></rects>
      <tilted>0</tilted></_>
    <_>
      <rects>
        <_>
          12 26 12 2 -1.</_>
        <_>
          12 26 6 1 2.</_>
        <_>
          18 27 6 1 2.</_></rects>
      <tilted>0</tilted></_>
    <_>
      <rects>
        <_>
          12 27 15 2 -1.</_>
        <_>
          12 28 15 1 2.</_></rects>
      <tilted>0</tilted></_>
    <_>
      <rects>
        <_>
          12 28 9 1 -1.</_>
        <_>
          15 28 3 1 3.</_></rects>
      <tilted>0</tilted></_>
    <_>
      <rects>
        <_>
          12 28 13 2 -1.</_>
        <_>
          12 29 13 1 2.</_></rects>
      <tilted>0</tilted></_>
    <_>
      <rects>
        <_>
          13 0 8 2 -1.</_>
        <_>
          13 0 4 1 2.</_>
        <_>
          17 1 4 1 2.</_></rects>
      <tilted>0</tilted></_>
    <_>
      <rects>
        <_>
          13 0 16 4 -1.</_>
        <_>
          13 0 8 2 2.</_>
        <_>
          21 2 8 2 2.</_></rects>
      <tilted>0</tilted></_>
    <_>
      <rects>
        <_>
          13 0 10 3 -1.</_>
        <_>
          13 1 10 1 3.</_></rects>
      <tilted>0</tilted></_>
    <_>
      <rects>
        <_>
          13 0 11 3 -1.</_>
        <_>
          13 1 11 1 3.</_></rects>
      <tilted>0</tilted></_>
    <_>
      <rects>
        <_>
          13 0 12 3 -1.</_>
        <_>
          13 1 12 1 3.</_></rects>
      <tilted>0</tilted></_>
    <_>
      <rects>
        <_>
          13 1 3 7 -1.</_>
        <_>
          14 1 1 7 3.</_></rects>
      <tilted>0</tilted></_>
    <_>
      <rects>
        <_>
          13 1 9 1 -1.</_>
        <_>
          16 1 3 1 3.</_></rects>
      <tilted>0</tilted></_>
    <_>
      <rects>
        <_>
          13 1 12 2 -1.</_>
        <_>
          13 1 6 1 2.</_>
        <_>
          19 2 6 1 2.</_></rects>
      <tilted>0</tilted></_>
    <_>
      <rects>
        <_>
          13 1 11 2 -1.</_>
        <_>
          13 2 11 1 2.</_></rects>
      <tilted>0</tilted></_>
    <_>
      <rects>
        <_>
          13 1 15 6 -1.</_>
        <_>
          13 3 15 2 3.</_></rects>
      <tilted>0</tilted></_>
    <_>
      <rects>
        <_>
          13 2 3 4 -1.</_>
        <_>
          14 2 1 4 3.</_></rects>
      <tilted>0</tilted></_>
    <_>
      <rects>
        <_>
          13 3 9 2 -1.</_>
        <_>
          16 3 3 2 3.</_></rects>
      <tilted>0</tilted></_>
    <_>
      <rects>
        <_>
          13 3 6 6 -1.</_>
        <_>
          13 3 3 3 2.</_>
        <_>
          16 6 3 3 2.</_></rects>
      <tilted>0</tilted></_>
    <_>
      <rects>
        <_>
          13 22 10 4 -1.</_>
        <_>
          13 22 5 2 2.</_>
        <_>
          18 24 5 2 2.</_></rects>
      <tilted>0</tilted></_>
    <_>
      <rects>
        <_>
          13 25 11 4 -1.</_>
        <_>
          13 27 11 2 2.</_></rects>
      <tilted>0</tilted></_>
    <_>
      <rects>
        <_>
          13 26 11 3 -1.</_>
        <_>
          13 27 11 1 3.</_></rects>
      <tilted>0</tilted></_>
    <_>
      <rects>
        <_>
          13 27 5 3 -1.</_>
        <_>
          13 28 5 1 3.</_></rects>
      <tilted>0</tilted></_>
    <_>
      <rects>
        <_>
          13 27 6 3 -1.</_>
        <_>
          13 28 6 1 3.</_></rects>
      <tilted>0</tilted></_>
    <_>
      <rects>
        <_>
          13 27 14 2 -1.</_>
        <_>
          13 27 7 1 2.</_>
        <_>
          20 28 7 1 2.</_></rects>
      <tilted>0</tilted></_>
    <_>
      <rects>
        <_>
          13 27 9 2 -1.</_>
        <_>
          13 28 9 1 2.</_></rects>
      <tilted>0</tilted></_>
    <_>
      <rects>
        <_>
          13 27 11 3 -1.</_>
        <_>
          13 28 11 1 3.</_></rects>
      <tilted>0</tilted></_>
    <_>
      <rects>
        <_>
          13 27 15 3 -1.</_>
        <_>
          13 28 15 1 3.</_></rects>
      <tilted>0</tilted></_>
    <_>
      <rects>
        <_>
          13 28 9 1 -1.</_>
        <_>
          16 28 3 1 3.</_></rects>
      <tilted>0</tilted></_>
    <_>
      <rects>
        <_>
          13 28 9 2 -1.</_>
        <_>
          16 28 3 2 3.</_></rects>
      <tilted>0</tilted></_>
    <_>
      <rects>
        <_>
          13 28 10 2 -1.</_>
        <_>
          13 28 5 1 2.</_>
        <_>
          18 29 5 1 2.</_></rects>
      <tilted>0</tilted></_>
    <_>
      <rects>
        <_>
          13 28 12 2 -1.</_>
        <_>
          13 28 6 1 2.</_>
        <_>
          19 29 6 1 2.</_></rects>
      <tilted>0</tilted></_>
    <_>
      <rects>
        <_>
          14 0 2 2 -1.</_>
        <_>
          14 0 1 1 2.</_>
        <_>
          15 1 1 1 2.</_></rects>
      <tilted>0</tilted></_>
    <_>
      <rects>
        <_>
          14 0 3 11 -1.</_>
        <_>
          15 0 1 11 3.</_></rects>
      <tilted>0</tilted></_>
    <_>
      <rects>
        <_>
          14 0 2 3 -1.</_>
        <_>
          14 1 2 1 3.</_></rects>
      <tilted>0</tilted></_>
    <_>
      <rects>
        <_>
          14 0 3 3 -1.</_>
        <_>
          14 1 3 1 3.</_></rects>
      <tilted>0</tilted></_>
    <_>
      <rects>
        <_>
          14 0 10 3 -1.</_>
        <_>
          14 1 10 1 3.</_></rects>
      <tilted>0</tilted></_>
    <_>
      <rects>
        <_>
          14 1 10 2 -1.</_>
        <_>
          14 1 5 1 2.</_>
        <_>
          19 2 5 1 2.</_></rects>
      <tilted>0</tilted></_>
    <_>
      <rects>
        <_>
          14 10 12 1 -1.</_>
        <_>
          18 10 4 1 3.</_></rects>
      <tilted>0</tilted></_>
    <_>
      <rects>
        <_>
          14 11 16 2 -1.</_>
        <_>
          14 11 8 1 2.</_>
        <_>
          22 12 8 1 2.</_></rects>
      <tilted>0</tilted></_>
    <_>
      <rects>
        <_>
          14 23 14 6 -1.</_>
        <_>
          14 25 14 2 3.</_></rects>
      <tilted>0</tilted></_>
    <_>
      <rects>
        <_>
          14 24 16 6 -1.</_>
        <_>
          14 24 8 3 2.</_>
        <_>
          22 27 8 3 2.</_></rects>
      <tilted>0</tilted></_>
    <_>
      <rects>
        <_>
          14 26 10 2 -1.</_>
        <_>
          14 26 5 1 2.</_>
        <_>
          19 27 5 1 2.</_></rects>
      <tilted>0</tilted></_>
    <_>
      <rects>
        <_>
          14 26 15 2 -1.</_>
        <_>
          14 27 15 1 2.</_></rects>
      <tilted>0</tilted></_>
    <_>
      <rects>
        <_>
          14 27 3 3 -1.</_>
        <_>
          14 28 3 1 3.</_></rects>
      <tilted>0</tilted></_>
    <_>
      <rects>
        <_>
          14 27 9 3 -1.</_>
        <_>
          17 27 3 3 3.</_></rects>
      <tilted>0</tilted></_>
    <_>
      <rects>
        <_>
          14 27 8 2 -1.</_>
        <_>
          14 27 4 1 2.</_>
        <_>
          18 28 4 1 2.</_></rects>
      <tilted>0</tilted></_>
    <_>
      <rects>
        <_>
          14 27 12 2 -1.</_>
        <_>
          14 27 6 1 2.</_>
        <_>
          20 28 6 1 2.</_></rects>
      <tilted>0</tilted></_>
    <_>
      <rects>
        <_>
          14 27 8 3 -1.</_>
        <_>
          14 28 8 1 3.</_></rects>
      <tilted>0</tilted></_>
    <_>
      <rects>
        <_>
          14 27 15 3 -1.</_>
        <_>
          14 28 15 1 3.</_></rects>
      <tilted>0</tilted></_>
    <_>
      <rects>
        <_>
          14 28 9 1 -1.</_>
        <_>
          17 28 3 1 3.</_></rects>
      <tilted>0</tilted></_>
    <_>
      <rects>
        <_>
          14 28 8 2 -1.</_>
        <_>
          14 28 4 1 2.</_>
        <_>
          18 29 4 1 2.</_></rects>
      <tilted>0</tilted></_>
    <_>
      <rects>
        <_>
          14 28 15 1 -1.</_>
        <_>
          19 28 5 1 3.</_></rects>
      <tilted>0</tilted></_>
    <_>
      <rects>
        <_>
          14 29 9 1 -1.</_>
        <_>
          17 29 3 1 3.</_></rects>
      <tilted>0</tilted></_>
    <_>
      <rects>
        <_>
          15 0 3 1 -1.</_>
        <_>
          16 0 1 1 3.</_></rects>
      <tilted>0</tilted></_>
    <_>
      <rects>
        <_>
          15 1 9 1 -1.</_>
        <_>
          18 1 3 1 3.</_></rects>
      <tilted>0</tilted></_>
    <_>
      <rects>
        <_>
          15 1 9 4 -1.</_>
        <_>
          18 1 3 4 3.</_></rects>
      <tilted>0</tilted></_>
    <_>
      <rects>
        <_>
          15 1 10 2 -1.</_>
        <_>
          15 1 5 1 2.</_>
        <_>
          20 2 5 1 2.</_></rects>
      <tilted>0</tilted></_>
    <_>
      <rects>
        <_>
          15 1 8 4 -1.</_>
        <_>
          15 3 8 2 2.</_></rects>
      <tilted>0</tilted></_>
    <_>
      <rects>
        <_>
          15 17 6 6 -1.</_>
        <_>
          15 17 3 3 2.</_>
        <_>
          18 20 3 3 2.</_></rects>
      <tilted>0</tilted></_>
    <_>
      <rects>
        <_>
          15 18 2 10 -1.</_>
        <_>
          15 18 1 5 2.</_>
        <_>
          16 23 1 5 2.</_></rects>
      <tilted>0</tilted></_>
    <_>
      <rects>
        <_>
          15 19 2 4 -1.</_>
        <_>
          15 19 1 2 2.</_>
        <_>
          16 21 1 2 2.</_></rects>
      <tilted>0</tilted></_>
    <_>
      <rects>
        <_>
          15 20 8 2 -1.</_>
        <_>
          15 20 4 1 2.</_>
        <_>
          19 21 4 1 2.</_></rects>
      <tilted>0</tilted></_>
    <_>
      <rects>
        <_>
          15 22 6 3 -1.</_>
        <_>
          15 23 6 1 3.</_></rects>
      <tilted>0</tilted></_>
    <_>
      <rects>
        <_>
          15 23 7 2 -1.</_>
        <_>
          15 24 7 1 2.</_></rects>
      <tilted>0</tilted></_>
    <_>
      <rects>
        <_>
          15 24 10 6 -1.</_>
        <_>
          15 24 5 3 2.</_>
        <_>
          20 27 5 3 2.</_></rects>
      <tilted>0</tilted></_>
    <_>
      <rects>
        <_>
          15 25 12 4 -1.</_>
        <_>
          15 25 6 2 2.</_>
        <_>
          21 27 6 2 2.</_></rects>
      <tilted>0</tilted></_>
    <_>
      <rects>
        <_>
          15 25 15 3 -1.</_>
        <_>
          15 26 15 1 3.</_></rects>
      <tilted>0</tilted></_>
    <_>
      <rects>
        <_>
          15 26 2 4 -1.</_>
        <_>
          15 26 1 2 2.</_>
        <_>
          16 28 1 2 2.</_></rects>
      <tilted>0</tilted></_>
    <_>
      <rects>
        <_>
          15 26 14 4 -1.</_>
        <_>
          15 26 7 2 2.</_>
        <_>
          22 28 7 2 2.</_></rects>
      <tilted>0</tilted></_>
    <_>
      <rects>
        <_>
          15 27 3 3 -1.</_>
        <_>
          15 28 3 1 3.</_></rects>
      <tilted>0</tilted></_>
    <_>
      <rects>
        <_>
          15 28 4 1 -1.</_>
        <_>
          17 28 2 1 2.</_></rects>
      <tilted>0</tilted></_>
    <_>
      <rects>
        <_>
          15 28 9 1 -1.</_>
        <_>
          18 28 3 1 3.</_></rects>
      <tilted>0</tilted></_>
    <_>
      <rects>
        <_>
          15 28 8 1 -1.</_>
        <_>
          19 28 4 1 2.</_></rects>
      <tilted>0</tilted></_>
    <_>
      <rects>
        <_>
          16 0 9 14 -1.</_>
        <_>
          16 7 9 7 2.</_></rects>
      <tilted>0</tilted></_>
    <_>
      <rects>
        <_>
          16 1 8 2 -1.</_>
        <_>
          16 1 4 1 2.</_>
        <_>
          20 2 4 1 2.</_></rects>
      <tilted>0</tilted></_>
    <_>
      <rects>
        <_>
          16 6 2 10 -1.</_>
        <_>
          16 11 2 5 2.</_></rects>
      <tilted>0</tilted></_>
    <_>
      <rects>
        <_>
          16 23 14 6 -1.</_>
        <_>
          16 25 14 2 3.</_></rects>
      <tilted>0</tilted></_>
    <_>
      <rects>
        <_>
          16 24 14 6 -1.</_>
        <_>
          16 24 7 3 2.</_>
        <_>
          23 27 7 3 2.</_></rects>
      <tilted>0</tilted></_>
    <_>
      <rects>
        <_>
          16 25 14 4 -1.</_>
        <_>
          16 25 7 2 2.</_>
        <_>
          23 27 7 2 2.</_></rects>
      <tilted>0</tilted></_>
    <_>
      <rects>
        <_>
          16 27 6 1 -1.</_>
        <_>
          18 27 2 1 3.</_></rects>
      <tilted>0</tilted></_>
    <_>
      <rects>
        <_>
          17 0 3 4 -1.</_>
        <_>
          18 0 1 4 3.</_></rects>
      <tilted>0</tilted></_>
    <_>
      <rects>
        <_>
          17 0 9 2 -1.</_>
        <_>
          20 0 3 2 3.</_></rects>
      <tilted>0</tilted></_>
    <_>
      <rects>
        <_>
          17 1 6 4 -1.</_>
        <_>
          19 1 2 4 3.</_></rects>
      <tilted>0</tilted></_>
    <_>
      <rects>
        <_>
          17 1 12 4 -1.</_>
        <_>
          17 1 6 2 2.</_>
        <_>
          23 3 6 2 2.</_></rects>
      <tilted>0</tilted></_>
    <_>
      <rects>
        <_>
          17 2 11 3 -1.</_>
        <_>
          17 3 11 1 3.</_></rects>
      <tilted>0</tilted></_>
    <_>
      <rects>
        <_>
          17 12 3 3 -1.</_>
        <_>
          18 12 1 3 3.</_></rects>
      <tilted>0</tilted></_>
    <_>
      <rects>
        <_>
          17 15 1 2 -1.</_>
        <_>
          17 16 1 1 2.</_></rects>
      <tilted>0</tilted></_>
    <_>
      <rects>
        <_>
          17 16 4 2 -1.</_>
        <_>
          17 16 2 1 2.</_>
        <_>
          19 17 2 1 2.</_></rects>
      <tilted>0</tilted></_>
    <_>
      <rects>
        <_>
          17 18 4 12 -1.</_>
        <_>
          17 18 2 6 2.</_>
        <_>
          19 24 2 6 2.</_></rects>
      <tilted>0</tilted></_>
    <_>
      <rects>
        <_>
          17 24 10 6 -1.</_>
        <_>
          17 24 5 3 2.</_>
        <_>
          22 27 5 3 2.</_></rects>
      <tilted>0</tilted></_>
    <_>
      <rects>
        <_>
          17 27 12 1 -1.</_>
        <_>
          21 27 4 1 3.</_></rects>
      <tilted>0</tilted></_>
    <_>
      <rects>
        <_>
          17 29 3 1 -1.</_>
        <_>
          18 29 1 1 3.</_></rects>
      <tilted>0</tilted></_>
    <_>
      <rects>
        <_>
          18 0 6 4 -1.</_>
        <_>
          21 0 3 4 2.</_></rects>
      <tilted>0</tilted></_>
    <_>
      <rects>
        <_>
          18 0 12 8 -1.</_>
        <_>
          18 0 6 4 2.</_>
        <_>
          24 4 6 4 2.</_></rects>
      <tilted>0</tilted></_>
    <_>
      <rects>
        <_>
          18 1 9 2 -1.</_>
        <_>
          21 1 3 2 3.</_></rects>
      <tilted>0</tilted></_>
    <_>
      <rects>
        <_>
          18 9 12 4 -1.</_>
        <_>
          24 9 6 4 2.</_></rects>
      <tilted>0</tilted></_>
    <_>
      <rects>
        <_>
          18 26 6 2 -1.</_>
        <_>
          18 26 3 1 2.</_>
        <_>
          21 27 3 1 2.</_></rects>
      <tilted>0</tilted></_>
    <_>
      <rects>
        <_>
          18 26 12 4 -1.</_>
        <_>
          22 26 4 4 3.</_></rects>
      <tilted>0</tilted></_>
    <_>
      <rects>
        <_>
          18 27 6 2 -1.</_>
        <_>
          18 27 3 1 2.</_>
        <_>
          21 28 3 1 2.</_></rects>
      <tilted>0</tilted></_>
    <_>
      <rects>
        <_>
          18 27 9 2 -1.</_>
        <_>
          21 27 3 2 3.</_></rects>
      <tilted>0</tilted></_>
    <_>
      <rects>
        <_>
          18 28 2 2 -1.</_>
        <_>
          19 28 1 2 2.</_></rects>
      <tilted>0</tilted></_>
    <_>
      <rects>
        <_>
          18 28 9 1 -1.</_>
        <_>
          21 28 3 1 3.</_></rects>
      <tilted>0</tilted></_>
    <_>
      <rects>
        <_>
          19 1 2 7 -1.</_>
        <_>
          20 1 1 7 2.</_></rects>
      <tilted>0</tilted></_>
    <_>
      <rects>
        <_>
          19 1 6 4 -1.</_>
        <_>
          19 1 3 2 2.</_>
        <_>
          22 3 3 2 2.</_></rects>
      <tilted>0</tilted></_>
    <_>
      <rects>
        <_>
          19 2 5 6 -1.</_>
        <_>
          19 4 5 2 3.</_></rects>
      <tilted>0</tilted></_>
    <_>
      <rects>
        <_>
          19 5 1 3 -1.</_>
        <_>
          19 6 1 1 3.</_></rects>
      <tilted>0</tilted></_>
    <_>
      <rects>
        <_>
          19 5 4 4 -1.</_>
        <_>
          21 5 2 4 2.</_></rects>
      <tilted>0</tilted></_>
    <_>
